{"type":"LSTMTimeStep","options":{"inputSize":1,"inputRange":0,"hiddenLayers":[20],"outputSize":1,"decayRate":0.999,"smoothEps":1e-8,"regc":0.000001,"clipval":5,"maxPredictionLength":100,"dataFormatter":{"indexTable":{},"characterTable":{},"characters":[],"specialIndexes":[]}},"hiddenLayers":[{"inputMatrix":{"rows":20,"columns":1,"weights":[-0.01467842422425747,-0.015886418521404266,0.015251478180289268,0.0012438878184184432,0.004698528908193111,0.003421633969992399,0.009534520097076893,0.010605892166495323,-0.006675973534584045,-0.006088807247579098,-0.01271895319223404,0.012850526720285416,0.011817574501037598,-0.01418791152536869,-0.014561241492629051,-0.0029187409672886133,-0.009376831352710724,-0.014735888689756393,0.012589143589138985,0.005718680564314127]},"inputHidden":{"rows":20,"columns":20,"weights":[-0.004250634461641312,0.0072524454444646835,-0.015242978930473328,-0.012385765090584755,0.00591025548055768,-0.01708974316716194,0.012253649532794952,-0.00686743576079607,-0.010529786348342896,0.010427964851260185,-0.0024664567317813635,0.00907863862812519,0.01161715853959322,-0.009034465067088604,-0.005187577567994595,-0.011082112789154053,0.0008196763228625059,0.007853128015995026,-0.0023028261493891478,-0.004191189538687468,0.009820740669965744,-0.004378647077828646,0.00900870468467474,0.0068230414763092995,0.006243956740945578,0.004497651942074299,-0.0032419508788734674,0.0024286252446472645,-0.015158351510763168,0.0038687754422426224,0.003708089701831341,0.010347546078264713,-0.014666732400655746,0.009304977022111416,-0.01595739834010601,-0.015484781004488468,-0.0014647834468632936,-0.010981036350131035,0.013178028166294098,0.016175663098692894,0.0037609166465699673,0.016894036903977394,-0.0031620976515114307,0.014692069962620735,0.005552446004003286,-0.010188142769038677,0.0069994148798286915,0.007536113262176514,0.014913680031895638,-0.01253409031778574,-0.01204503234475851,0.015040349215269089,0.0025611475575715303,0.00010712981020333245,0.011755523271858692,-0.00816369615495205,0.016261689364910126,-0.009088940918445587,-0.005745491478592157,-0.0034917136654257774,0.015426311641931534,-0.0077275605872273445,0.005311008542776108,-0.010136638768017292,-0.010542375966906548,0.012915341183543205,-0.016755085438489914,-0.005637929309159517,0.0003702011308632791,0.014140581712126732,-0.012778358533978462,-0.013498601503670216,-0.003747777547687292,-0.008665905334055424,0.003902820637449622,0.005152234807610512,-0.005402252543717623,0.0022380342707037926,0.0163288377225399,0.012275515124201775,-0.009791528806090355,0.014946740120649338,0.012316148728132248,0.01697913371026516,0.001804871717467904,0.01343362033367157,-0.00469853775575757,0.009924279525876045,0.01445792242884636,0.001388857141137123,-0.007292544469237328,0.016120342537760735,0.004110297188162804,-0.007060050964355469,0.011729077436029911,-0.014961900189518929,-0.00611164839938283,0.005535776261240244,-0.010301281698048115,0.01413330901414156,-0.014448821544647217,0.007226795889437199,0.0008893283666111529,0.00914874579757452,-0.013989483937621117,0.003921960946172476,-0.0019670166075229645,-0.004429394844919443,-0.006595604121685028,0.004733350593596697,0.01607801765203476,0.016246439889073372,0.009854741394519806,0.003729191143065691,0.011965597048401833,0.004897088278084993,0.0018066826742142439,-0.004493451211601496,0.007551246322691441,0.009542091749608517,0.006750213447958231,-0.011499504558742046,0.0028704910073429346,-0.006092372816056013,-0.015229742974042892,-0.0032126326113939285,0.016194017603993416,0.012223165482282639,0.016834456473588943,0.007578627206385136,-0.0077979289926588535,0.01451820321381092,0.00413560913875699,-0.013630584813654423,-0.013838721439242363,0.014243768528103828,-0.015354707837104797,0.0032879046630114317,-0.013045594096183777,-0.008729163557291031,0.013384579680860043,-0.0005494849756360054,0.009508974850177765,0.0006522384355776012,-0.00019828206859529018,0.005059971008449793,0.013329452835023403,0.01275329664349556,0.00005158754356671125,0.002682378049939871,0.008213631808757782,0.01258217915892601,-0.015057891607284546,-0.010353620164096355,0.013088610023260117,-0.0008023878326639533,0.015396859496831894,0.004929802846163511,0.005280798766762018,-0.004729495383799076,0.0070801046676933765,-0.007120826747268438,-0.014835836365818977,-0.0003003588935825974,0.01526653952896595,-0.0007279068813659251,-0.0038685076870024204,-0.006995508912950754,0.0024965121410787106,-0.008977232500910759,-0.00621265871450305,-0.0012855756795033813,0.004613969475030899,0.0033875610679388046,0.016064804047346115,0.01671237125992775,-0.011563267558813095,-0.009334763512015343,0.010691988281905651,0.014793258160352707,-0.009136922657489777,-0.006851330399513245,0.01126844622194767,0.0007357341819442809,0.005242900922894478,-0.009126507677137852,-0.008740873076021671,-0.014621969312429428,0.006700119469314814,-0.002544705057516694,-0.00866047665476799,0.00776541605591774,-0.014574548229575157,-0.007607624866068363,-0.016251681372523308,0.001797120668925345,-0.014059514738619328,0.007873247377574444,-0.004168439656496048,-0.0130582544952631,0.005707765929400921,0.009633185341954231,-0.010873920284211636,0.016934586688876152,0.0017682103207334876,0.015888754278421402,-0.014832314103841782,-0.008116907440125942,0.006865076720714569,-0.0035938983783125877,-0.01470901072025299,-0.006796655245125294,0.005927178077399731,-0.013302883133292198,0.0020581025164574385,0.014095889404416084,0.01709725335240364,-0.0007995348423719406,0.002683870727196336,-0.015377765521407127,-0.004483734257519245,-0.008387182839214802,-0.003829002846032381,0.01297304779291153,-0.013968358747661114,0.01576751470565796,0.004815899766981602,0.0021802603732794523,-0.0010853109415620565,-0.0003233061288483441,0.016859272494912148,-0.0159891489893198,0.0078105079010128975,-0.00468157883733511,0.006365950219333172,-0.004609414841979742,-0.016052821651101112,-0.016460809856653214,-0.01709359884262085,-0.008515282534062862,0.016641663387417793,0.011119038797914982,-0.010225758887827396,0.002378729172050953,0.011404304765164852,-0.008445550687611103,-0.0012756596552208066,-0.012662824243307114,0.0019146911799907684,0.007494105026125908,0.014810096472501755,0.005314114037901163,-0.012503638863563538,-0.00381546001881361,0.01677536591887474,-0.011520947329699993,0.0028941279742866755,0.0040934402495622635,0.014243707060813904,-0.002184817334637046,0.014913808554410934,-0.01381075382232666,0.004586094990372658,-0.001798421610146761,-0.007166992872953415,-0.0016671810299158096,-0.012968458235263824,-0.00432818615809083,-0.012910621240735054,-0.007631341926753521,0.005094388034194708,-0.0039732311852276325,-0.01026438269764185,0.004652427975088358,0.015158655121922493,-0.014813100919127464,-0.014099063351750374,-0.015560650266706944,-0.004965844098478556,-0.00446638697758317,-0.010669482871890068,0.00763179175555706,0.000017583262888365425,-0.01357221882790327,-0.01498117670416832,0.002231880323961377,-0.012609899044036865,-0.0018547109793871641,-0.013403162360191345,-0.017031271010637283,-0.011442749761044979,-0.010306516662240028,-0.005121663678437471,0.007290348410606384,0.009940499439835548,-0.0018156562000513077,0.01375016663223505,-0.008612941019237041,0.0022152678575366735,0.01042812131345272,0.015508492477238178,-0.004816760309040546,-0.012115229852497578,0.006875868421047926,-0.009339811280369759,-0.016890907660126686,0.016759496182203293,0.015065884217619896,0.0012029374483972788,0.00364125519990921,-0.003441466484218836,0.007498523220419884,0.0028983557131141424,-0.013484003022313118,-0.005748553201556206,0.0014522321289405227,-0.005499137099832296,0.004623510409146547,-0.005205771420150995,0.008104855194687843,-0.010361429303884506,0.010299376212060452,0.016710985451936722,0.006788812577724457,-0.007314123213291168,-0.009865724481642246,0.001662524649873376,0.0017385982209816575,0.0038152486085891724,-0.010769526474177837,0.015164351090788841,-0.007460646331310272,-0.005948914680629969,-0.005266547668725252,0.01590222306549549,-0.016942119225859642,0.01579882763326168,0.0024504545144736767,0.0020567956380546093,-0.009443065151572227,-0.016762930899858475,0.010379847139120102,-0.005274922586977482,-0.0036407895386219025,-0.011169137433171272,-0.006291239522397518,-0.013537978753447533,0.00726295355707407,0.014771148562431335,0.006243586540222168,-0.01252911239862442,-0.012669508345425129,0.003907286562025547,0.01141206081956625,0.009472482837736607,0.0008160782745108008,-0.0035824996884912252,0.00928543135523796,-0.005943987984210253,0.002198772504925728,-0.013319455087184906,-0.013493185862898827,-0.0001827908999985084,-0.0088185491040349,-0.004415549337863922,0.008370418101549149,-0.00754756573587656,0.0024948499631136656,-0.014294279739260674,-0.0029590397607535124,-0.007707635406404734,0.011567637324333191,-0.010885059833526611,-0.00046066707000136375,-0.016697950661182404,0.0014571644132956862,-0.0053555010817945,-0.006196307018399239,-0.005869354121387005,0.014164922758936882,0.012321403250098228,-0.0084824338555336,0.00756186805665493,-0.0032958195079118013,0.006455384194850922,0.00842872355133295,-0.01468314416706562,0.002698589349165559,0.010506500490009785,0.010489906184375286,-0.017085349187254906,0.015214717015624046,0.010440699756145477,0.005412579048424959,-0.016547633334994316,0.011027286760509014,-0.0013776978012174368,0.010418896563351154,-0.0003903814940713346,-0.013496971689164639]},"inputBias":{"rows":20,"columns":1,"weights":[0,0,0,2.324522575666225e-16,0,0,0,0,0,-2.2800615267516324e-18,0,0,0,0,0,-1.9011847582970368e-23,1.7629896960838105e-35,0,0,0]},"forgetMatrix":{"rows":20,"columns":1,"weights":[0.003815215080976486,0.014811556786298752,-0.005764802917838097,-0.004620689898729324,-0.005436539649963379,0.01396301668137312,-0.0008872028556652367,0.001906795660033822,0.004906431306153536,0.013831932097673416,0.007078308146446943,0.004822118207812309,0.004363668616861105,-0.00966582540422678,-0.012052061036229134,-0.009679965674877167,-0.0006879228167235851,0.013033004477620125,-0.010183286853134632,0.005392105784267187]},"forgetHidden":{"rows":20,"columns":20,"weights":[0.016438502818346024,-0.01355714537203312,-0.012279232032597065,-0.016519153490662575,0.011607658118009567,-0.006627247203141451,0.007900719530880451,0.016635041683912277,-0.0133423563092947,-0.008777049370110035,0.014046366326510906,-0.01425397489219904,0.009846855886280537,0.003498656675219536,0.006397157907485962,0.01700005680322647,0.002528710290789604,0.007829052396118641,-0.01423230953514576,0.015877416357398033,-0.011262520216405392,-0.003736242651939392,-0.005167805589735508,-0.011534451507031918,0.013051161542534828,-0.004970382899045944,0.011025932617485523,0.014153998345136642,0.003248285036534071,-0.0021532783284783363,-0.010207748040556908,-0.00762687623500824,0.006144961342215538,0.0005830895970575511,-0.0004465481033548713,0.0008518184768036008,0.011069394648075104,-0.003816641867160797,-0.002545609138906002,0.006907702889293432,0.0007279371493496001,0.00611168472096324,0.011909621767699718,-0.014504091814160347,-0.005439892876893282,-0.0018018250120803714,0.009548312984406948,-0.01164274476468563,-0.0001668023905949667,-0.011891172267496586,-0.004235082771629095,-0.0020074816420674324,-0.012872904539108276,0.007531524635851383,-0.004152616485953331,-0.013392792083323002,-0.015982845798134804,-0.007524111308157444,0.015587734058499336,-0.0019330327631905675,-0.007193183526396751,0.006641265004873276,-0.007503777742385864,0.0003454844991210848,-0.00760969053953886,-0.005048835184425116,0.0158472191542387,0.016448520123958588,-0.0062326001934707165,-0.016405409201979637,-0.01041147205978632,-0.00802648440003395,0.0037837065756320953,-0.014558672904968262,0.00927804410457611,-0.008766348473727703,-0.008474870584905148,-0.013823248445987701,-0.01302293036133051,-0.00508225429803133,-0.0024470945354551077,-0.0034902149345725775,0.016048191115260124,0.009404294192790985,-0.002382854698225856,0.012660346925258636,0.009725718759000301,0.012571160681545734,-0.00799315795302391,-0.00010186228610109538,-0.014754921197891235,0.0033915801905095577,0.009053008630871773,0.0006140527548268437,0.0026641739532351494,0.0003050187951885164,-0.006269180215895176,-0.00033085892209783196,-0.013965930789709091,-0.014270604588091373,0.004759707022458315,0.005578476469963789,0.012996970675885677,0.017121855169534683,-0.001457373844459653,0.015031939372420311,-0.006795516703277826,-0.012822844088077545,-0.017074739560484886,0.016551924869418144,0.0018213759176433086,-0.002856423147022724,0.011704889126121998,0.010871034115552902,0.012400497682392597,-0.013845105655491352,0.01639147847890854,0.010113755241036415,0.015600696206092834,0.010385553352534771,-0.006577180698513985,-0.011796604841947556,0.010393095202744007,-0.01144739706069231,0.010380932129919529,-0.0024326550774276257,0.006546670570969582,0.015132993459701538,-0.009247729554772377,-0.0025152768939733505,0.0004801513277925551,-0.01244791503995657,0.010717513971030712,-0.016481036320328712,0.014458656311035156,0.011868852190673351,-0.009479674510657787,0.01070108450949192,-0.004732970148324966,-0.00009513261466054246,0.008880095556378365,0.00717933801934123,-0.0012498527066782117,0.0022230353206396103,0.013623731210827827,0.005201668944209814,-0.015092110261321068,0.007246949709951878,-0.011002305895090103,-0.008689134381711483,-0.008637986145913601,-0.013053531758487225,0.01360345259308815,-0.016989942640066147,0.01618681475520134,-0.0121315224096179,-0.004279259592294693,-0.011108099482953548,0.003007171442732215,0.014834478497505188,0.01576443575322628,-0.0064762351103127,0.0018108636140823364,0.0044000712223351,0.0045876652002334595,0.002644527470692992,-0.010214929468929768,0.001292839995585382,-0.013388747349381447,-0.015680402517318726,-0.015653884038329124,0.0057307882234454155,-0.014704456552863121,-0.007803002372384071,-0.008744528517127037,0.01606661267578602,-0.0031475629657506943,0.006702904589474201,-0.01513950526714325,0.01364588737487793,-0.00853536557406187,0.0036855749785900116,0.014501871541142464,-0.008936665020883083,-0.009227481670677662,0.007417918182909489,0.0052109770476818085,-0.015345003455877304,0.0047731418162584305,-0.00482779648154974,-0.0055368938483297825,0.01159356627613306,0.015322159975767136,-0.0035584394354373217,0.010551627725362778,0.014844631776213646,-0.01575259305536747,0.01148239430040121,-0.0034630296286195517,0.008775508031249046,-0.0007399179739877582,-0.0003925866330973804,-0.012014871463179588,0.008679056540131569,-0.014397055841982365,-0.0028359268326312304,0.013105753809213638,-0.004533490166068077,-0.013136474415659904,0.011957350187003613,-0.013530113734304905,-0.011507590301334858,-0.010991803370416164,-0.009231852367520332,0.006015632301568985,-0.014599787071347237,-0.00014982701395638287,0.007986778393387794,0.009564686566591263,0.002273912774398923,-0.012832988053560257,-0.011812755838036537,-0.006933526135981083,-0.0012057721614837646,-0.017028287053108215,-0.010174056515097618,-0.005767910275608301,0.002197254914790392,-0.003965703770518303,0.008790411055088043,0.0009563640924170613,0.0015546404756605625,-0.012089960277080536,-0.013351349160075188,0.0025699574034661055,-0.005273215472698212,-0.010285208001732826,-0.012755487114191055,-0.007810681127011776,0.00037123446236364543,-0.012767973355948925,-0.009558064863085747,0.017146438360214233,-0.005084738600999117,-0.016147654503583908,0.0004734564572572708,-0.003641743678599596,0.006973741110414267,0.010082099586725235,0.011471559293568134,0.006856043357402086,0.0034403789322823286,-0.014176877215504646,-0.006967482622712851,-0.014575570821762085,-0.0036248937249183655,-0.007420339621603489,0.01109233032912016,0.0007083607488311827,-0.014358307234942913,0.01499314233660698,0.007978139445185661,0.0033671115525066853,-0.0013594088377431035,-0.0067915236577391624,0.016479896381497383,0.00019466225057840347,-0.0038590547628700733,0.0069321151822805405,0.01601368375122547,-0.0020352911669760942,-0.00587006751447916,-0.010466323234140873,0.006437694653868675,0.006896592676639557,0.005775590892881155,0.015431235544383526,0.009511128067970276,0.014788579195737839,0.011854596436023712,0.002187395468354225,0.010318256914615631,-0.002166429767385125,-0.0014438396319746971,0.0003746963629964739,-0.014691334217786789,0.0009266241686418653,0.006568265147507191,0.006409178022295237,-0.008662310428917408,-0.01008178386837244,0.01564372144639492,-0.008767485618591309,-0.01607740856707096,-0.01352674700319767,0.003788437694311142,-0.004342700820416212,-0.004285811446607113,0.016587436199188232,0.006999065633863211,-0.0021024192683398724,-0.0035415091551840305,0.008673496544361115,-0.002802114002406597,-0.0015984231140464544,-0.015265285968780518,-0.005478275008499622,0.01302148588001728,0.006672373507171869,0.0009574843570590019,0.014230896718800068,-0.01645704172551632,-0.009080239571630955,0.015283619984984398,-0.000400067976443097,0.014719709753990173,0.005979337729513645,-0.0027749037835747004,0.015869028866291046,0.013127924874424934,0.01348629780113697,0.010891958139836788,-0.002732698107138276,-0.0016186011489480734,-0.016433091834187508,-0.0004325699701439589,-0.002510416554287076,0.0026541983243077993,0.016710437834262848,-0.006125117652118206,0.012915391474962234,0.011622625403106213,-0.0039962646551430225,-0.005395648535341024,-0.008415314368903637,-0.015990672633051872,0.007858583703637123,-0.0014371530851349235,-0.006212543696165085,-0.003066523466259241,-0.016453690826892853,-0.016459055244922638,0.007258082740008831,-0.004609094001352787,-0.013024616986513138,0.006563862785696983,-0.008744815364480019,0.007633162662386894,0.012703163549304008,0.008566110394895077,-0.00810802262276411,0.0005613223183900118,0.0016350694932043552,0.011784546077251434,-0.0001912599109346047,-0.009802412241697311,0.011506452225148678,-0.010440291836857796,0.010054931044578552,0.0033247009851038456,0.012479400262236595,-0.013312889263033867,0.0027032613288611174,-0.00944062415510416,0.013808057643473148,0.006366243585944176,-0.013417035341262817,-0.000771084800362587,0.0010130275040864944,-0.011564620770514011,0.009487900882959366,0.012386513873934746,0.011084270663559437,0.011130147613584995,-0.013271329924464226,-0.005667103920131922,-0.011626123450696468,-0.012172906659543514,-0.005010787397623062,0.0004060789942741394,0.0037436089478433132,-0.014541830867528915,0.005198017694056034,-0.0031586228869855404,-0.0010642926208674908,-0.0016913155559450388,-0.0010351404780521989,-0.012445439584553242,-0.014214316383004189,0.004452846013009548,0.011580760590732098,0.009314944967627525,0.011859294027090073,-0.0016187562141567469,-0.0005247709341347218,-0.010681579820811749,-0.00736304372549057,0.0076421108096838,0.013304153457283974,-0.005430981051176786]},"forgetBias":{"rows":20,"columns":1,"weights":[0,0,0,0,0,0,0,0,0,0,0,0,0,0,0,0,0,0,0,0]},"outputMatrix":{"rows":20,"columns":1,"weights":[0.005101353861391544,0.010175798088312149,-0.01469864509999752,-0.0037522530183196068,-0.003952469676733017,0.25250452756881714,-0.009619398973882198,0.2731368839740753,-0.009242719039320946,0.0012323603732511401,0.003471814561635256,-0.007792975287884474,0.015686452388763428,-0.011332017369568348,0.00702181551605463,-0.003891813103109598,0.01585785299539566,-0.01110318023711443,-0.004073069430887699,0.002337690908461809]},"outputHidden":{"rows":20,"columns":20,"weights":[-0.016685325652360916,0.0035791469272226095,-0.0110194506123662,-0.006896204315125942,0.008641506545245647,0.005185410380363464,-0.014268766157329082,-0.005553311202675104,0.014263167046010494,-0.012844879180192947,0.002373464172706008,0.014121822081506252,0.014830471947789192,0.008868299424648285,0.00858510471880436,0.010489586740732193,-0.014001456089317799,-0.00665565300732851,-0.016942644491791725,-0.006035982631146908,0.011220327578485012,0.01172359474003315,-0.007343295030295849,-0.00976812094449997,-0.01590718887746334,0.011039018630981445,0.01552503276616335,-0.006839481182396412,-0.013440871611237526,-0.0023944941349327564,-0.0041712746024131775,0.013396366499364376,0.004791260231286287,0.015613552182912827,0.008363536559045315,0.01290996465831995,0.006453308276832104,0.010302984155714512,0.010623421519994736,-0.013243553228676319,-0.004126025829464197,-0.012862995266914368,-0.007138892542570829,0.008160068653523922,0.009507410228252411,-0.008447526022791862,0.016757264733314514,-0.014082235284149647,0.007928726263344288,0.014313751831650734,-0.002564325463026762,0.009109951555728912,0.007236997596919537,-0.013336613774299622,0.008555152453482151,0.015317833051085472,-0.0012220361968502402,0.0017167144687846303,-0.0005948675097897649,-0.0008076161611825228,-0.014811789616942406,0.013266033492982388,-0.003671062644571066,-0.0018468140624463558,0.014082053676247597,0.015142240561544895,-0.01582554541528225,-0.010893702507019043,-0.00041900528594851494,0.00010277488036081195,0.0008890356402844191,-0.006312010809779167,0.012214209884405136,-0.009145942516624928,0.010758403688669205,-0.009301559068262577,0.01212812028825283,-0.00906597450375557,0.004749118350446224,0.001693636062555015,-0.0011198994470760226,0.009804871864616871,0.013333095237612724,0.003054063068702817,-0.013309519737958908,0.006720585748553276,0.014440909028053284,-0.012565367855131626,-0.013392157852649689,0.014465322718024254,-0.007235514931380749,0.010339831002056599,-0.002170043531805277,-0.013951527886092663,-0.01638827845454216,0.01213215384632349,0.010807141661643982,-0.015396572649478912,-0.0035678306594491005,-0.011936443857848644,0.007386296987533569,-0.004931150935590267,0.0018424114678055048,0.005399046000093222,0.003911678679287434,0.005204401910305023,0.00044908683048561215,-0.009176986292004585,0.013853982090950012,0.015855910256505013,-0.008637011051177979,0.01011012401431799,0.008293643593788147,-0.012375558726489544,-0.009935819543898106,-0.013259569182991982,-0.00727620255202055,0.0020057561341673136,0.010386589914560318,-0.007706927601248026,-0.015331637114286423,-0.016891498118638992,-0.01124543696641922,0.00492260092869401,0.017116213217377663,-0.006491909734904766,-0.009058167226612568,0.015207424759864807,-0.001682432834059,0.010455971583724022,0.0006980696925893426,0.012074561789631844,-0.014189193956553936,0.006589233409613371,0.005431063938885927,0.006417976692318916,0.00797387957572937,-0.004967478569597006,0.0016903628129512072,0.007031356915831566,-0.013575098477303982,0.01681828685104847,0.008138764649629593,-0.0075483545660972595,-0.004649578593671322,0.012478082440793514,0.015750428661704063,0.003919973969459534,0.006203565280884504,0.0005231720861047506,0.015769410878419876,0.0026238744612783194,-0.01330900751054287,0.016092048957943916,0.008192752487957478,-0.0033632111735641956,-0.0018528762739151716,-0.014388934709131718,0.0008286171359941363,-0.0184131171554327,0.006607457064092159,-0.006967626512050629,-0.01579015515744686,-0.0024446898605674505,0.0031145717948675156,0.013688224367797375,-0.012968014925718307,0.002819618908688426,-0.016165094450116158,-0.015317246317863464,0.007769817486405373,0.0015400033444166183,0.009820565581321716,-0.0029507786966860294,0.005512122064828873,0.00950708333402872,0.0017414141912013292,0.013482807204127312,-0.014251727610826492,0.013363491743803024,0.010708632878959179,-0.010330342687666416,0.0063484772108495235,-0.004655833356082439,0.0034398480784147978,-0.005702128633856773,0.00960784312337637,0.0029801991768181324,0.014171736314892769,-0.015996791422367096,-0.005424120929092169,-0.006809947546571493,-0.0009861085563898087,-0.004428515210747719,0.006415861658751965,-0.0006461429293267429,0.01305093988776207,0.007249378599226475,-0.015107601881027222,0.01472228392958641,0.008166651241481304,0.0052823168225586414,-0.0004468258994165808,0.00938517414033413,-0.014944663271307945,-0.006801064126193523,-0.009719306603074074,-0.002373546129092574,-0.0006518175941891968,0.011790769174695015,0.0076142847537994385,0.005247135180979967,-0.014454703778028488,0.00790396612137556,0.0028438062872737646,0.016738757491111755,0.01465904712677002,-0.0097110690549016,-0.0065051233395934105,0.00042780564399436116,0.013625066727399826,0.012089219875633717,-0.002440417418256402,-0.008284972980618477,-0.01623620092868805,-0.00280100479722023,-0.0024492540396749973,-0.003201329382136464,0.009202410466969013,0.0012530786916613579,-0.014619113877415657,0.006944066379219294,0.0119485380128026,-0.016353677958250046,0.003883027471601963,0.016336767002940178,-0.008882958441972733,-0.0003161198110319674,-0.015431868843734264,-0.012362958863377571,-0.006838663946837187,0.0061689275316894054,0.012951312586665154,0.003549192100763321,0.0024191392585635185,-0.012085819616913795,-0.001865896862000227,0.011573046445846558,0.01681828685104847,0.015253230929374695,-0.013801516965031624,0.011587743647396564,-0.005347680300474167,-0.0010322972666472197,-0.0034216619096696377,0.015444103628396988,0.010245010256767273,-0.007182653062045574,-0.006683404091745615,-0.012706001289188862,-0.0048884442076087,0.010853733867406845,-0.011773149482905865,-0.000053094132454134524,0.008953087031841278,-0.016107216477394104,0.008203760720789433,-0.0007015970768406987,-0.01145840436220169,0.0014590814244002104,0.005122185219079256,-0.0034043602645397186,0.0144627895206213,0.011476151645183563,-0.00014635594561696053,-0.004654168616980314,0.015607340261340141,-0.007971658371388912,-0.002600042847916484,-0.0067528109066188335,-0.010513927787542343,-0.016509445384144783,0.013873204588890076,-0.007425504736602306,-0.010363087058067322,-0.0012705748667940497,0.01301366463303566,0.002581497887149453,-0.006022872403264046,0.007941877469420433,0.008164542727172375,-0.014921069145202637,-0.013494616374373436,0.013859857805073261,0.007084463257342577,-0.0062649184837937355,0.015266122296452522,0.00998700875788927,-0.009101670235395432,0.016868174076080322,-0.00503483647480607,-0.002478873124346137,-0.01113841962069273,0.005001208744943142,-0.0041892873123288155,-0.009734490886330605,0.000974068243522197,-0.0050745452754199505,-0.0073073385283350945,-0.013065447099506855,-0.014700692147016525,-0.011663958430290222,-0.0020707808434963226,-0.0031449031084775925,-0.006023973226547241,0.003727847244590521,0.005187173839658499,0.009608961641788483,0.01039716973900795,-0.0003764772554859519,0.0006494747940450907,0.0022752282675355673,-0.014885148033499718,0.0012324430281296372,-0.0016709836199879646,0.011981720104813576,-0.0027459308039397,-0.00622260756790638,0.015582362189888954,0.013724305666983128,0.010765205137431622,-0.009997676126658916,-0.002257823944091797,-0.016214000061154366,-0.011814848519861698,0.00801648385822773,-0.010499023832380772,0.0005935307708568871,-0.005864591803401709,-0.008640575222671032,-0.003452069591730833,-0.0012736971257254481,0.008409569971263409,0.0025917557068169117,-0.005496744066476822,0.006922875065356493,0.014823323115706444,0.01148256752640009,0.004677559714764357,0.0054860725067555904,0.004355273675173521,-0.005174914840608835,0.00010781957098515704,0.0004513332387432456,0.016872834414243698,0.013503259047865868,-0.006365741603076458,-0.01705191656947136,0.012163186445832253,-0.015938080847263336,-0.013261756859719753,0.00746819656342268,-0.014592379331588745,-0.00865078717470169,-0.006652964744716883,-0.009421202354133129,0.015597444958984852,0.012354407459497452,-0.010076434351503849,-0.001124063739553094,0.008724705316126347,0.004666784778237343,0.01699374057352543,-0.010470820590853691,-0.014902915805578232,-0.002151974244043231,-0.005157520063221455,-0.0050607603043317795,0.004511995241045952,0.013365929014980793,-0.01252282690256834,0.014601524919271469,-0.014078128151595592,-0.00922372005879879,-0.0003805732703767717,0.013946314342319965,0.0003912565589416772,-0.0008559888228774071,-0.012022715061903,0.013929732143878937,0.0008173161186277866,-0.01606658101081848,-0.0029211489018052816,0.014424672350287437,-0.005274585448205471,0.014281942509114742,-0.007511204108595848,0.011156869120895863,0.012840446084737778,-0.005933830980211496]},"outputBias":{"rows":20,"columns":1,"weights":[0,0,0,2.4606633397539213e-10,-6.183962231176565e-9,0,6.216390473316301e-37,0,0,-4.372928943513275e-24,0,2.2586861016473863e-28,0,0,0,-1.9011847582970368e-23,0,0,8.102422378863938e-12,0]},"cellActivationMatrix":{"rows":20,"columns":1,"weights":[0.009879310615360737,-0.010954562574625015,0.010695082135498524,0.0070790136232972145,-0.014761388301849365,0.006600820459425449,-0.016694149002432823,-0.0014130962081253529,0.0005334486486390233,0.011030436493456364,-0.00274268863722682,-0.014109509997069836,0.01651909574866295,0.012884808704257011,-0.002911282004788518,0.0015329396119341254,-0.01434273924678564,0.004527309909462929,-0.007617615163326263,-0.016540169715881348]},"cellActivationHidden":{"rows":20,"columns":20,"weights":[0.00007921373617136851,-0.014768034219741821,-0.003530978225171566,-0.01127728819847107,-0.012787689454853535,0.015506302937865257,-0.006897461600601673,0.013168847188353539,0.0041794427670538425,0.0005340261850506067,-0.013943366706371307,-0.005545862019062042,-0.008448506705462933,0.010635515674948692,0.002717434661462903,0.01094440370798111,0.0008217994472943246,-0.012669211253523827,0.007809314411133528,-0.011480691842734814,-0.006484639830887318,-0.005115143489092588,-0.0020908948499709368,-0.01505693793296814,0.003166207578033209,0.011749445460736752,0.007338842377066612,-0.00908209104090929,0.009555494412779808,-0.01710672304034233,0.005591666791588068,-0.007990212179720402,-0.003656584769487381,-0.0025906963273882866,0.010818499140441418,0.004112039692699909,-0.001994482008740306,-0.0042489622719585896,-0.004572753794491291,-0.00976478960365057,0.016414178535342216,-0.008067850954830647,0.000999755458906293,0.010716662742197514,-0.00626700883731246,0.013275732286274433,0.016967903822660446,-0.005255206488072872,0.00477590411901474,0.012659328058362007,-0.00815283041447401,0.0009657402406446636,-0.004620096180588007,0.0065626585856080055,-0.006806082092225552,0.009753493592143059,-0.012744797393679619,-0.00887954980134964,-0.009789853356778622,-0.010354266501963139,0.005878922995179892,-0.003868022235110402,0.012187116779386997,-0.005180076230317354,0.013154393061995506,0.0069083524867892265,-0.015229146927595139,0.0016725040040910244,0.012668582610785961,-0.0061490414664149284,-0.0034350270871073008,-0.011564151383936405,0.005854188930243254,-0.01677086018025875,0.00033295643515884876,0.01192945521324873,-0.005198243074119091,-0.0015304230619221926,-0.015582574531435966,-0.004069586284458637,0.016661392524838448,-0.008773772045969963,0.008918754756450653,-0.002596525475382805,-0.016103075817227364,-0.0034181061200797558,-0.007777481339871883,-0.002078085206449032,0.01697581447660923,-0.01699487492442131,-0.01316262036561966,0.015637928619980812,0.010121848434209824,0.009141593240201473,-0.01386458519846201,0.010907675139605999,0.009741965681314468,0.010350762866437435,0.008767091669142246,0.011460794135928154,0.004969891160726547,0.009012151509523392,0.005864577833563089,0.002234499901533127,0.009495889768004417,-0.013341778889298439,-0.009729762561619282,-0.016306733712553978,0.0042953514494001865,0.011165446601808071,-0.009029576554894447,-0.013853934593498707,0.010679315775632858,0.012346738018095493,-0.010491665452718735,0.015613008290529251,0.002915272256359458,0.008793855085968971,0.009009012952446938,-0.003048466518521309,-0.008663675747811794,-0.0048377616330981255,0.000390081899240613,-0.013725300319492817,-0.012215162627398968,0.016921499744057655,-0.006795779336243868,-0.010994483716785908,-0.0096034100279212,-0.011192092671990395,0.014935674145817757,-0.004319503903388977,-0.015566566027700901,0.0009826570749282837,0.007063737604767084,0.015374947339296341,-0.004856937564909458,0.006505865138024092,0.0012843230506405234,-0.0050841947086155415,-0.003920846618711948,-0.009989066049456596,0.011164344847202301,-0.006225219927728176,0.010038557462394238,0.016429219394922256,-0.011710750870406628,0.01619071699678898,0.011039326898753643,0.011187178082764149,0.007498309016227722,0.00011621799785643816,0.008326178416609764,0.005021381191909313,0.006383959203958511,-0.008092432282865047,-0.0012170876143500209,-0.00866282731294632,-0.016524886712431908,0.01232929341495037,0.00040177046321332455,-0.0047454191371798515,-0.002196253277361393,-0.010661051608622074,-0.0022023029159754515,-0.013845614157617092,-0.0008997145923785865,-0.007402844727039337,0.008883330971002579,0.000539808243047446,0.01251379307359457,-0.014322320930659771,-0.0037677278742194176,-0.0020859013311564922,0.00912177748978138,0.003998344298452139,-0.0030548858921974897,0.016782982274889946,0.010771569795906544,0.004827763419598341,0.00945805013179779,0.0028161315713077784,0.0011856380151584744,-0.014393004588782787,-0.003481581574305892,-0.01193405594676733,0.016310447826981544,0.008312567137181759,0.0009274156764149666,-0.013694879598915577,0.005610883701592684,0.010421614162623882,-0.00764039158821106,-0.003205636516213417,0.010766047984361649,0.0011107767932116985,0.012053130194544792,0.014774000272154808,0.01558594685047865,-0.01649325154721737,-0.00481802225112915,0.01639482006430626,-0.0017298596212640405,-0.015273099765181541,0.006737763062119484,0.008675793185830116,0.005658682901412249,-0.016112815588712692,0.01607120782136917,0.0024420451372861862,-0.016762077808380127,0.009033553302288055,-0.0029268190264701843,-0.0010070333955809474,-0.01302468590438366,0.0090845488011837,0.005324408877640963,0.01548054814338684,0.006671936716884375,0.011279088445007801,0.0027768868021667004,0.016928022727370262,0.01458771713078022,-0.014268391765654087,-0.002189275110140443,-0.007168631535023451,-0.016237245872616768,0.00037204823456704617,0.004296956583857536,-0.005616208538413048,0.012889068573713303,0.00910132471472025,-0.0075928326696157455,-0.004110589157789946,-0.015983251854777336,0.008695303462445736,-0.015470225363969803,-0.0011557538527995348,0.01698748767375946,0.007377304136753082,-0.004732363857328892,0.002508587436750531,-0.0016340052243322134,-0.013893499039113522,0.01398029737174511,-0.006186546292155981,-0.014009089209139347,0.014631345868110657,0.0010915835155174136,0.008770184591412544,0.0017974579241126776,-0.001184171298518777,0.006376434117555618,-0.009298756718635559,-0.016118867322802544,0.006845767609775066,-0.005923351272940636,-0.013388150371611118,0.009248285554349422,0.009806890040636063,-0.01277979090809822,-0.010464579798281193,0.008534661494195461,-0.01369117759168148,-0.011367234401404858,0.00611630966886878,-0.0007605955470353365,0.016999956220388412,0.016744066029787064,-0.00934558268636465,-0.01183363888412714,0.00692193116992712,0.015580627135932446,0.0043005989864468575,-0.005943038500845432,0.004935331176966429,0.01579880155622959,0.0038755997084081173,0.011960145086050034,0.015279989689588547,-0.0015250699361786246,0.0015831561759114265,-0.004542412236332893,0.016408951953053474,0.014630632475018501,0.010709907859563828,0.006618596147745848,0.014627382159233093,-0.016137022525072098,-0.012183282524347305,0.001174697419628501,-0.01401125080883503,0.0005514541990123689,-0.012600813060998917,-0.01691320165991783,0.0024157490115612745,0.00040206132689490914,-0.009875718504190445,0.00549266068264842,-0.01120560709387064,0.006102100946009159,-0.0027857806999236345,0.01681527867913246,-0.011285983957350254,0.005744585767388344,-0.0010861316695809364,0.015058370307087898,0.007536916062235832,-0.0037314435467123985,-0.003773953765630722,-0.010247917845845222,0.0010027018142864108,0.012016314081847668,-0.01584908738732338,0.006586641073226929,0.0030240502674132586,-0.008773035369813442,0.003712968435138464,-0.002320737112313509,0.011779953725636005,-0.0025573058519512415,0.01618298888206482,0.008410964161157608,0.007665547542273998,-0.009345760568976402,-0.0014652195386588573,-0.0029997951351106167,-0.006779788061976433,-0.008874836377799511,-0.004862427245825529,-0.0005333040608093143,0.0038296878337860107,-0.013289406895637512,0.008808850310742855,0.007500755600631237,-0.012600133195519447,0.010681886225938797,0.013276972807943821,0.0040786671452224255,0.0035136882215738297,0.01242783386260271,0.005217472091317177,-0.007217539940029383,0.010845051147043705,-0.00027816143119707704,0.01440473459661007,0.01549631915986538,-0.017118507996201515,-0.010098305530846119,-0.01251917239278555,0.0006283499533310533,-0.011423368938267231,-0.012449009343981743,0.009764447808265686,-0.002707152860239148,0.012807168997824192,0.011192369274795055,-0.0020324394572526217,-0.00318533880636096,0.006591091398149729,-0.011664547957479954,-0.0042977528646588326,-0.0005913685308769345,-0.010352255776524544,0.01630169153213501,-0.015865230932831764,0.013825153931975365,0.0030455784872174263,-0.0018225985113531351,-0.0025602453388273716,-0.00025929149705916643,0.009742400608956814,-0.015516540966928005,0.00401967903599143,0.0038598424289375544,-0.008486398495733738,-0.013361308723688126,-0.011782385408878326,-0.008470428176224232,-0.011109069921076298,0.007709638215601444,-0.011695021763443947,0.01376359723508358,0.0030526898335665464,0.014452915638685226,0.015306305140256882,0.016414547339081764,0.013861464336514473,0.002588545437902212,0.0042060017585754395,0.001105426112189889,-0.0006761268596164882,0.009216884151101112,0.004024239256978035,-0.007635961286723614,0.00020853510068263859,-0.005794441793113947,-0.0121257733553648,0.0028840526938438416,-0.009342675097286701]},"cellActivationBias":{"rows":20,"columns":1,"weights":[0,0,0,0,0,0,0,0,0,0,0,0,0,0,0,0,0,0,0,0]}}],"outputConnector":{"rows":1,"columns":20,"weights":[-0.016336657106876373,-0.01683325506746769,0.009754212573170662,0.0042824530974030495,0.008446301333606243,0.08114462345838547,-0.007340752519667149,-0.06595572084188461,0.0162093173712492,-0.015104806050658226,-0.0012825083686038852,-0.009195901453495026,0.07799697667360306,-0.00025318239931948483,-0.008329237811267376,-0.016914259642362595,-0.011447510682046413,0.006850754842162132,-0.0017410422442480922,-0.07227320224046707]},"output":{"rows":1,"columns":1,"weights":[4.096053600311279]},"inputLookup":null,"inputLookupLength":0,"outputLookup":null,"outputLookupLength":0}