{"type":"LSTMTimeStep","options":{"inputSize":1,"inputRange":0,"hiddenLayers":[20],"outputSize":1,"decayRate":0.999,"smoothEps":1e-8,"regc":0.000001,"clipval":5,"maxPredictionLength":100,"dataFormatter":{"indexTable":{},"characterTable":{},"characters":[],"specialIndexes":[]}},"hiddenLayers":[{"inputMatrix":{"rows":20,"columns":1,"weights":[0.0032959538511931896,0.007172206416726112,0.04849294573068619,0.007107129320502281,0.008503628894686699,0.016443263739347458,0.20432515442371368,0.2934682369232178,0.019058074802160263,0.01231444999575615,0.003786355722695589,0.005424224305897951,0.019616136327385902,0.00491560623049736,0.01292603649199009,0.03653266653418541,0.021926917135715485,0.030529987066984177,0.25966987013816833,0.0033548567444086075]},"inputHidden":{"rows":20,"columns":20,"weights":[-0.00005528821566258557,-0.00008745543891564012,-0.00009017687261803076,0.00007889494008850306,-0.00003052728789043613,-0.000006459324140450917,-0.0000013391232869253145,0.00005545984458876774,-0.00003001574987138156,0.00009628063708078116,0.0000894807162694633,0.00008414914918830618,-0.0000619963466306217,-0.00006562742782989517,0.00014177896082401276,0.000058312863984610885,0.00010285823373124003,-0.00010455392475705594,-0.00008048625022638589,-0.00007834185817046091,0.00008415421325480565,-0.000024372855477849953,-0.000040793183870846406,-0.000175737906829454,-0.00000931120666791685,0.0000850663345772773,-0.000010750628462119494,0.00017921281687449664,0.000059692232753150165,-0.00003930340244551189,0.00006822586874477565,0.0000570700503885746,0.0001526288251625374,0.000020726618458866142,0.000006840971764177084,0.00009265494009014219,-0.000050520015065558255,0.00006324910646071658,-0.00017912924522534013,-0.0001541591773275286,0.00004263925438863225,0.0002181351592298597,-0.00006126920925453305,-0.00017725401266943663,-0.00010083499364554882,0.0001786218344932422,0.00009956352005247027,0.00009868861525319517,0.00007497396291000769,0.00022373811225406826,0.0001554688496980816,0.00015395232185255736,0.0001059938658727333,-0.00020867498824372888,0.0001689185155555606,-0.00019543991948012263,-0.000005432541001937352,-0.00006678495992673561,-0.0000403211779484991,-0.0000760782349971123,0.00957022700458765,0.009616504423320293,-0.0000072173133958131075,-0.017582228407263756,-0.009662318974733353,0.010427821427583694,-0.0000666826163069345,0.009653577581048012,0.009626304730772972,0.00006001377187203616,0.009514955803751945,0.0095996567979455,0.00963740423321724,-0.009672505781054497,0.009657913818955421,-0.00003255737101426348,-0.00008831676677800715,-0.00006468340143328533,-0.009524117223918438,-0.009498701430857182,0.00011649503721855581,0.00018664918025024235,0.00006866156763862818,-0.00012911744124721736,-0.00027213021530769765,0.0002510590711608529,-0.00010317272244719788,0.00018492236267775297,0.00009038269490702078,0.000020403716916916892,0.00023534958017989993,0.00010797387221828103,0.0002185714547522366,-0.00024797924561426044,0.00025541207287460566,-0.00005406656418927014,-0.00008434426854364574,-0.0000889018047018908,-0.0002278439060319215,-0.000088831118773669,0.00043103774078190327,0.00035168367321603,0.00009441578004043549,-0.0005345597746782005,-0.000536943378392607,0.0004695599782280624,-0.00004134217306273058,0.000496752152685076,0.0005070617189630866,0.0005438663065433502,0.0005114241503179073,0.0004866541421506554,0.0005338829359970987,-0.000513686565682292,0.0003744806454051286,0.00000288148862637172,-0.00006847018812550232,0.000048568035708740354,-0.0004763854667544365,-0.00047485518734902143,0.016047680750489235,0.016185607761144638,0.00010641870176186785,-0.015981201082468033,-0.0161691065877676,0.016039004549384117,0.00012363710266072303,0.016092468053102493,0.01620098575949669,0.01607070490717888,0.015974093228578568,0.016004910692572594,0.016116755083203316,-0.01613459177315235,0.015978001058101654,0.00009944873454514891,-0.000022309313862933777,-0.0000909789014258422,-0.016030028462409973,-0.01617380604147911,0.007425260730087757,0.007411034777760506,0.007311692461371422,-0.007419868838042021,-0.007352262735366821,0.007420837879180908,0.007341807708144188,0.0073311822488904,0.00731109082698822,0.007384352385997772,0.007390283048152924,0.007283546030521393,0.007338720373809338,-0.007345644757151604,0.007385283708572388,-0.007221567444503307,-0.00734352134168148,-0.007234721910208464,-0.007321191020309925,-0.007442608010023832,0.0002949293702840805,0.0003950649406760931,-0.0000346441229339689,-0.00047618773533031344,-0.0003257984353695065,0.0003105645882897079,0.0003855562536045909,0.00043692506733350456,0.00043813971569761634,0.0004932434530928731,0.0003904802433680743,0.0004408464883454144,0.00039146168273873627,-0.0003123924252577126,0.00038538733497262,0.000022206766516319476,-0.000031296371162170544,-0.00010342862515244633,-0.0003657997294794768,-0.0003105970681644976,0.0002023514243774116,0.0001936951302923262,-0.00010350075899623334,0.000007372495019808412,-0.000004393009476189036,0.00017001839296426624,0.00008279867324745283,0.00020486305584199727,0.0001434440928278491,-0.00007731071673333645,0.00013650053006131202,0.00019126234110444784,-3.101415870787605e-7,-0.00006490427040262148,0.00017525091243442148,-0.00004543689647107385,-0.000053714251407654956,0.000018720771549851634,-0.00002803925053740386,-0.00009800279076443985,0.00009151000995188951,-0.00010682478023227304,0.0000017828444924816722,-0.00010447009117342532,0.000029884115065215155,0.000024414808649453335,-0.00010214457870461047,0.000014652732716058381,-0.00009786878945305943,-0.00001565346246934496,0.00008979171980172396,-0.000041321458411403,-0.00007479235500795767,-0.000040506442019250244,-0.000014484801795333624,0.000014599214409827255,-0.00007107130659278482,1.7032573396136286e-7,-0.00007420715701300651,-0.00006694463081657887,0.0000497697401442565,0.00010726384789450094,-0.000031192033929983154,0.00010010123514803126,-0.00012430280912667513,-0.00005374820466386154,0.00007425437797792256,-0.00010266758181387559,0.00014347396790981293,0.000025215289497282356,0.00009423592564417049,-0.00007889759581303224,0.00007302788435481489,0.000006971087714191526,-0.00003431071309023537,-0.000023210555809782818,-0.0000026786735816131113,-0.000007703160008531995,-0.00006552121340064332,0.00004045155583298765,0.0003894693509209901,0.0005023145931772888,-0.00010123042738996446,-0.0005134738748893142,-0.00043114792788401246,0.0005668782396242023,0.00040270257159136236,0.000564464891795069,0.0004429792461451143,0.0005946671590209007,0.0003926803474314511,0.00039928738260641694,0.00050603091949597,-0.0005252911360003054,0.0003723681147675961,-0.000042537667468423024,-0.00004695025199907832,-0.00010833785199793056,-0.00046225235564634204,-0.0005014557973481715,0.00014165337779559195,0.000043777446990134194,-0.00010774430847959593,0.000021977124561090022,-0.00020647590281441808,0.00013949742424301803,0.00004267671101843007,0.000031312392820836976,0.00010170784662477672,0.00011239980085520074,0.00020482877152971923,-0.000004628806436812738,0.00015022966545075178,-0.0000701733588357456,2.9250838906591525e-7,-0.00009928011422744021,-0.0000972990455920808,0.000050500751967774704,-0.00007169085438363254,-0.00006435536488424987,0.00033554807305336,0.000257925275946036,0.00010066429967992008,-0.0002566267503425479,-0.00015701116353739053,0.0002193596592405811,-0.00008352909208042547,0.00022880922188051045,0.00022306716709863394,0.00027236054302193224,0.00017183010641019791,0.0002473658532835543,0.00020721866167150438,-0.00030265626264736056,0.0003443386813160032,0.000045049226173432544,0.000072953145718202,-0.00010146005661226809,-0.00026257408899255097,-0.00015400652773678303,0.021855873987078667,0.021843189373612404,0.00008111839997582138,-0.021910086274147034,-0.02185720205307007,0.021892696619033813,0.02187877707183361,0.02193564735352993,0.021937785670161247,0.021808790042996407,0.02184363640844822,0.021909242495894432,0.021817823871970177,-0.021861203014850616,0.02182142250239849,-0.00006709779700031504,-0.000018035285393125378,0.0000812351718195714,-0.02187713049352169,-0.021909015253186226,0.01370045356452465,0.013657674193382263,0.013563517481088638,-0.013637734577059746,-0.013625920750200748,0.01360272616147995,0.013549392111599445,0.01371467113494873,0.01356167159974575,0.013627499341964722,0.01358833722770214,0.01370680145919323,0.013610320165753365,-0.013599205762147903,0.013714339584112167,-0.013585338369011879,0.00006178731564432383,-0.013727672398090363,-0.013583382591605186,-0.013627205975353718,0.0014981180429458618,0.0014526158338412642,0.000024686756660230458,-0.001574499998241663,-0.0013671069173142314,0.0014481982216238976,0.001534607377834618,0.0014047439908608794,0.0014025853015482426,0.0015562961343675852,0.0015430687926709652,0.0015666326507925987,0.001465191482566297,-0.001418772153556347,0.0015318618388846517,-0.0014613565290346742,-0.000049016805860446766,-0.00005422030881163664,-0.001502959174104035,-0.0014182728482410312,0.000030174363928381354,0.000047009336412884295,-0.00008595936378696933,-0.000010770753760880325,0.00003306143844383769,-0.000051465533033479005,-0.000039167352952063084,0.00007685699529247358,0.000059142112149856985,9.883757456918829e-8,-0.00005230852184467949,-0.00006143302016425878,0.00004845453076995909,0.00004623219138011336,-0.000055424683523597196,0.00006759120151400566,-0.00003361642302479595,0.00009281870734412223,0.000002192723513871897,0.00008084985165623948,-0.00007786740752635524,0.00008696928853169084,0.00004776154310093261,0.000100779376225546,0.00011050749890273437,0.00007017656025709584,-0.00006124068750068545,-0.00006289360317168757,9.137481811194448e-7,-0.000020124056391068734,0.00002613917604321614,-0.00011201402958249673,0.00008494785288348794,0.000040745988371782005,0.00007086224650265649,0.00009001840226119384,-0.000015729341612313874,-0.000051381546654738486,-0.000045923079596832395,0.00002602099812065717]},"inputBias":{"rows":20,"columns":1,"weights":[0,2.294489709342429e-9,0.0000494029518449679,0.06384462863206863,0,0,0.03430201858282089,4.848330092954711e-8,0,0.000036371577152749524,0.000003198871581844287,0,0,0,0,0.0236646868288517,0.005258684512227774,0.0011658151634037495,0.03321245685219765,6.254857112253376e-7]},"forgetMatrix":{"rows":20,"columns":1,"weights":[0.005302280653268099,0.003396435407921672,0.18914052844047546,0.016561616212129593,0.03252912312746048,0.007608742453157902,0.01871732994914055,0.07038276642560959,0.06621411442756653,0.01223765593022108,0.00661923922598362,0.003862435929477215,0.014185352250933647,0.05180696025490761,0.01898457109928131,0.02209351770579815,0.05015050247311592,0.0036024220753461123,0.01287494320422411,0.012423252686858177]},"forgetHidden":{"rows":20,"columns":20,"weights":[0.00018065632320940495,-0.000007451572855643462,0.0000544698559679091,0.00010589749581413344,-0.000023345686713582836,-0.00004264145900378935,0.00009121314360527322,-0.00003121931149507873,0.00010526114783715457,0.00010068253322970122,0.000014426930647459812,0.00010047279647551477,0.00017133272194769233,-0.00006751257024006918,0.0001334695116383955,0.00008258078014478087,-0.000021313497200026177,0.00002072812094411347,-0.00014309180551208556,-0.0000178490809048526,-0.000009311192116001621,0.00010962187661789358,0.00010265580203849822,0.00004631893534678966,-0.000011290529073448852,0.00010877934255404398,0.00007766495400574058,-0.000027375963327358477,0.00003291805478511378,-0.00006185469828778878,0.000053067447879584506,-0.00007315247785300016,0.00014122843276709318,0.00007463063229806721,0.000013598893019661773,0.000042897310777334496,-0.00010693861258914694,0.00009761205001268536,-0.00007661749259568751,-0.0000650877773296088,0.002828441560268402,0.0029649436473846436,0.0028772640507668257,-0.0029132363852113485,-0.002893597586080432,0.0029704528860747814,0.002850481541827321,0.0028598213102668524,0.0028948504477739334,0.002853833371773362,0.0027772863395512104,0.002963162260130048,0.0028437688015401363,-0.0029169940389692783,0.0028243272099643946,-0.002846594201400876,-0.002973622875288129,-0.0029864616226404905,-0.0028127338737249374,-0.0029213279485702515,0.00008943088323576376,0.0002463248965796083,0.000030685430829180405,-0.0002597993006929755,-0.0000916983190109022,0.00024004047736525536,-0.00005752791912527755,0.000133628083858639,0.00021786545403301716,0.0002188921789638698,0.00013490294804796576,0.00029142654966562986,0.00009305991989094764,-0.0002291794226039201,0.0002889597089961171,-0.00004178474409854971,0.00003624840610427782,0.0000665686748106964,-0.00018880369316320866,-0.0001969657896552235,0.0045911516062915325,0.004552624188363552,-0.00006456144183175638,-0.0005598618881776929,-0.004397524055093527,0.004309421870857477,0.0006087461952120066,0.0007078928756527603,0.004523346666246653,0.0006324750138446689,0.004418268334120512,0.004492930136620998,0.004381182137876749,-0.004483621567487717,0.004496690817177296,-0.0006195596070028841,0.000014721465049660765,-0.0007035789894871414,-0.004410038236528635,-0.0045842379331588745,0.0002077575190924108,0.000362247257726267,0.00005653636617353186,-0.0003941123723052442,-0.000419814808992669,0.0002596013655420393,-0.000044062213419238105,0.00036996271228417754,0.00021725377882830799,-0.0000876609337865375,0.00022610044106841087,0.0003234031319152564,0.000345017877407372,-0.0002467850281391293,0.0002456972433719784,-0.0000010889546047110343,0.00009081427560886368,0.00010168107110075653,-0.0003343363059684634,-0.00023802844225428998,0.0013705567689612508,0.0014295624569058418,0.0000035403031688474584,-0.0013725516619160771,-0.0014843168901279569,0.0015095013659447432,0.00005314787267707288,0.0014636378036811948,0.001371680642478168,0.00142253702506423,0.001415249309502542,0.0013879073085263371,0.0014921375550329685,-0.001507180742919445,0.0013644829159602523,-0.0000153700566443149,0.00002906331792473793,-0.00004627949238056317,-0.0014381804503500462,-0.0014232656685635448,0.0012196290772408247,0.0012412198120728135,0.0011733286082744598,-0.0011716154403984547,-0.0012098271399736404,0.0012987604131922126,0.0013004776556044817,0.0011638638097792864,0.0013121830997988582,0.0013102608500048518,0.0012014161329716444,0.0011237915605306625,0.0012087768409401178,-0.00115202518645674,0.001329493708908558,-0.001348977442830801,-0.0011956916423514485,-0.0012579737231135368,-0.0012561430921778083,-0.0011865310370922089,0.0013346609193831682,0.0012720644008368254,0.0013670489424839616,-0.001352651626802981,-0.0011819953797385097,0.0012175198644399643,0.0013488181866705418,0.0012315175263211131,0.0012318978551775217,0.0012151086702942848,0.0013699012342840433,0.0012416274985298514,0.0013163883704692125,-0.0012881583534181118,0.0013181453105062246,-0.0012687129201367497,-0.0012149063404649496,-0.0012844116427004337,-0.001382688176818192,-0.001259113778360188,-0.00004548431752482429,0.00014964582805987448,-0.0000395030110666994,0.00003008542989846319,0.000004142752004554495,0.0001402168709319085,-0.00008770550630288199,0.00008554677333449945,0.00011584893218241632,0.0000858663916005753,-0.00005212752876104787,0.000013434137144940905,-0.00004337151403888129,0.000014709799870615825,0.0000206472886929987,0.000056438402680214494,0.00002229615165560972,-0.000044127922592451796,0.000007250024282257073,-0.00008271343540400267,0.0001289484353037551,0.000011630213521129917,0.000014384919268195517,-0.000032306608773069456,-0.00011934398207813501,0.0000034528532069089124,0.000009931100066751242,0.00006252463936107233,0.00015069720393512398,0.00005677314038621262,-3.6779132983610907e-7,-0.00005206114656175487,0.00012733243056572974,-0.00016881548799574375,0.00005153507299837656,0.00006980490434216335,0.00007756772538414225,-0.000058006495237350464,0.000011670821550069377,0.00005056584268459119,-0.0000754158099880442,-0.00004710557186626829,0.00002701003904803656,0.000023372742361971177,-0.00009791358024813235,0.000018892340449383482,-0.00004246996468282305,0.0000720735260983929,-0.00005430107194115408,0.00007798583101248369,-0.000056738681450951844,0.00012194834562251344,0.0000264726004388649,-0.00012797897215932608,-0.00007836253644200042,-0.0000585447414778173,0.00010113338066730648,0.0000422066223109141,-0.0000415796966990456,-0.0000762486452003941,0.0003264373808633536,0.0001646915334276855,-0.00009491145465290174,-0.0002489662147127092,-0.00023500630049966276,0.0002847664291039109,-0.00006818513065809384,0.0003431162622291595,0.00033232863643206656,0.000300816900562495,0.0003613400913309306,0.00015084035112522542,0.00021813044440932572,-0.00029327726224437356,0.00028410382219590247,-0.00001619329304958228,-0.000022522484869114123,-0.00003307522274553776,-0.0002156267873942852,-0.0002910566399805248,0.0010738421697169542,0.001103032031096518,0.0009758783271536231,-0.0010054114973172545,-0.0010099150240421295,0.0009195470483973622,0.0009026171173900366,0.0010834826389327645,0.0009880384895950556,0.0010149048175662756,0.0010506224352866411,0.0010347774950787425,0.0009190925629809499,-0.0009257970377802849,0.0009368786122649908,-0.0009456861298531294,0.000029750779503956437,-0.0009602542268112302,-0.0010162689723074436,-0.0009883319726213813,0.00042208778904750943,0.00037677615182474256,0.000098242329841014,-0.0003486697969492525,-0.000468528363853693,0.000316007761284709,0.0004664251464419067,0.00025362559244967997,0.00040509310201741755,0.0002602705208119005,0.00029779778560623527,0.00024798771482892334,0.00031221460085362196,-0.00037955297739245,0.00043053875560872257,0.00007323246245505288,-0.00005313282963470556,0.00010482853394933045,-0.0003747719165403396,-0.0004562630201689899,0.000025386618290212937,-0.00002936487362603657,0.00004907358015771024,-0.0001507957640569657,-0.00006607782415812835,-0.000041837349272100255,0.00007250261114677414,0.00009862967999652028,0.0000321308289130684,0.00013561105879489332,0.00012095918646082282,-0.00006029176802258007,0.00005332637010724284,-0.00007740693399682641,-0.000057603254390414804,-0.000028903919883305207,-0.00008415205957135186,-0.00006441785808419809,0.00004379638994578272,-0.00010739331628428772,-0.000019019649698748253,0.0000645422114757821,-0.0000891849267645739,-0.00003578695759642869,-0.00010997748904628679,-0.00003807032044278458,0.000004012861154478742,0.00010305795876774937,-0.00004790459934156388,-0.000046365235903067514,0.0000061692339841101784,0.00005481181142386049,0.00009772233897820115,0.000060276717704255134,-0.000086598789494019,0.000028537560865515843,0.00003363622090546414,-0.00011278678721282631,0.00008066868031164631,0.000032096821087179706,-0.00006404027953976765,0.00011347622785251588,0.00003896601629094221,-0.00007580754754599184,-0.00006931480311322957,0.0000975869843387045,-0.000036299461498856544,-0.00003547113010426983,-0.000007356027708738111,-0.000046547054807888344,0.0000451894557045307,-0.00006972518167458475,0.000027781217795563862,-0.00007424978684866801,0.0000493440093123354,-0.00004338149665272795,-0.0001075773689080961,-0.000042663043132051826,-0.00007479148189304397,-0.000054156120313564315,0.0002715576265472919,0.00031947428942658007,-6.422347951229312e-7,-0.0003032844979315996,-0.00016497774049639702,0.00034388151834718883,0.00010814572306117043,0.0002571374352555722,0.00026379904011264443,0.0002464003337081522,0.0002455331850796938,0.00031148019479587674,0.00021777692018076777,-0.00019403983606025577,0.0002056452794931829,-0.000034761666029226035,0.000040525090298615396,-0.0000684145197737962,-0.00031465551001019776,-0.00034151444560848176,0.0002662592160049826,0.00011239921150263399,-0.00009963788033928722,-0.00020407878037076443,-0.0001228688779519871,0.000287605042103678,-0.000023561366106150672,0.00026241070008836687,0.00011140739661641419,0.00014845392433926463,0.0001185144210467115,0.00021913905220571905,0.00018878377159126103,-0.00011344475205987692,0.00013552141899708658,-0.00004014169462607242,0.00008379534119740129,-0.00004224995427648537,-0.00024142673646565527,-0.0002894484787248075]},"forgetBias":{"rows":20,"columns":1,"weights":[0,0,0,0,0,0,0,0,0,0,0,0,0,0,0,0,0,0,0,0]},"outputMatrix":{"rows":20,"columns":1,"weights":[0.002190274652093649,0.01272173598408699,0.03411558270454407,0.016490809619426727,0.059019625186920166,0.0018986831419169903,0.018761523067951202,0.013479495421051979,0.002913504606112838,0.012270706705749035,0.009808534756302834,0.10443922877311707,0.14680638909339905,0.012075006030499935,0.021351484581828117,0.016225522384047508,0.08237361162900925,0.009128661826252937,0.0030598195735365152,0.0035094444174319506]},"outputHidden":{"rows":20,"columns":20,"weights":[0.000029206130420789123,0.00004545308547676541,-0.000023283451810129918,0.0000985336591838859,-0.00005871135363122448,0.0001120560773415491,0.00006413507799152285,0.00003332141932332888,-0.00006850137287983671,0.00010339709115214646,-0.00006835944805061445,-0.000095790957857389,0.00007829323294572532,-0.00002679940007510595,-0.0001087713535525836,-0.00003456703052506782,0.00009705436241347343,0.00011087372695328668,0.00007080183422658592,0.00006600542110390961,0.004136271774768829,0.004221722017973661,-0.000004095627446076833,-0.0042644948698580265,-0.0040925233624875546,0.0040729171596467495,0.004208741709589958,0.004131582099944353,0.00420776754617691,0.004090138711035252,0.004169916734099388,0.004099747631698847,0.004149959422647953,-0.004201952368021011,0.0041963038966059685,-0.00010568973084446043,-0.00004198714668746106,0.000021827758246217854,-0.0041292388923466206,-0.004067497793585062,-0.000019584076653700322,0.000017872600437840447,0.0000290639691229444,0.00001221251022798242,0.00004698420889326371,0.0000903899417608045,-0.00008658644946990535,-0.00008479726238874719,0.000042188989027636126,0.00011518636893015355,-0.000052706513088196516,-0.000017006621419568546,0.00003818179902737029,-0.00005556665200856514,-0.00005971462087472901,0.00006678554927930236,-0.00006745247810613364,-0.00003087606091867201,-0.00007131838356144726,-0.0000018708215065998957,0.0028721902053803205,0.002857132814824581,-0.00006376797682605684,-0.0029194068629294634,-0.0028119070921093225,0.0027769014704972506,0.002929650479927659,0.0029289983212947845,0.0027270137798041105,0.0029014816973358393,0.0027883180882781744,0.0027943747118115425,0.002753885230049491,-0.0027583136688917875,0.002847394673153758,0.00002601871165097691,0.00003566340819816105,0.00004457621253095567,-0.002809322439134121,-0.0029029918368905783,0.02184564247727394,0.021955661475658417,0.021964021027088165,-0.022042203694581985,-0.021879732608795166,0.021861104294657707,0.02199024148285389,0.02193782664835453,0.02206491306424141,0.02189808525145054,0.021976562216877937,0.02206595055758953,0.021881433203816414,-0.02195162884891033,0.021870559081435204,-0.021866893395781517,-0.021948179230093956,-0.022027701139450073,-0.0220397487282753,-0.021871238946914673,0.0019041902851313353,0.0019039730541408062,-0.00011267825175309554,0.00005436042192741297,-0.0018431551288813353,0.0016434375429525971,-0.0000423012679675594,-0.00003700817615026608,0.0018749027512967587,-0.00006130053952801973,0.0018638672772794962,0.0017740566981956363,0.00187887460924685,-0.0019179212395101786,0.0016418390441685915,0.0000019428241557761794,-0.000050732043746393174,-0.00010308473429176956,-0.0018297452479600906,-0.0019060783088207245,0.000397422380046919,0.00030665373196825385,0.00008962107676779851,-0.0004278977576177567,-0.00036705067032016814,0.0003527196531649679,0.00006537601439049467,0.0002751255233306438,0.00024766766000539064,0.000429932726547122,0.0002396484778728336,0.0003708704316522926,0.00028217578073963523,-0.0003874220419675112,0.00028124224627390504,-0.000038995316572254524,0.00004848467870033346,-0.00010172228940064088,-0.000409550906624645,-0.0003961264155805111,0.0015625121304765344,0.0016235423972830176,-0.0000020178404156467877,-0.0016569786239415407,-0.0015508958604186773,0.001709507778286934,-0.00005164639151189476,0.0017257786821573973,0.0015667593106627464,0.0017242955509573221,0.0017096621450036764,0.001654852763749659,0.0015875061508268118,-0.0015238644555211067,0.0017187902703881264,0.000023888003852334805,-0.00008821112714940682,-0.000011351330613251776,-0.0016454269643872976,-0.001595781184732914,0.001071730861440301,0.0009639443596825004,0.00003972191916545853,-0.00009079842129722238,-0.0009412470972165465,0.0010662085842341185,0.000006892028522997862,-0.00004769347287947312,0.0009012330556288362,0.00007016608287813142,0.000931504531763494,0.0009193969890475273,0.0008936988306231797,-0.0010862273629754782,0.0008919044048525393,0.00001607882950338535,0.000026620184144121595,0.00004899159102933481,-0.001039761584252119,-0.0010015020379796624,0.000022829093722975813,0.00021569083037320524,0.000028908809326821938,-0.000035875065805157647,-0.00019355873519089073,0.00004701294528786093,0.00007044414815027267,0.00022735842503607273,0.00019776332192122936,-0.000005711492121918127,0.0000942310070968233,0.00017238670261576772,0.000055324613640550524,-0.00008979360427474603,0.00013089233834762126,-0.00009803870489122346,-0.00001522576258139452,0.000014546149031957611,-0.00006971031689317897,-0.00022023561177775264,0.0017339200712740421,0.0017969829495996237,0.0001106953714042902,-0.0017907273722812533,-0.001838233321905136,0.0018818075768649578,-0.00004683609222411178,0.0017435638001188636,0.0017881994135677814,-0.0000508140328747686,0.0018635033629834652,0.001759212464094162,0.00179493788164109,-0.0017652784008532763,0.001928310259245336,0.00007213350909296423,-0.00007164719863794744,-0.0000624651147518307,-0.0018358989618718624,-0.0019052966963499784,0.00001655848063819576,0.00002394296279817354,0.00001891578722279519,-0.00001627913115953561,0.00009270200098399073,-0.000039760128856869414,-0.00003703489346662536,-0.00008615292608737946,0.000029223941965028644,0.00010445481166243553,0.00011216357961529866,-0.000022457372324424796,0.00001237953438248951,0.00008069855539361015,-0.000050595568609423935,0.00007752816600259393,0.000015876390534685925,0.000015339090168708935,0.00007529243885073811,0.00009544871136313304,0.05772139132022858,0.05765414237976074,0.05766189470887184,-0.05782260000705719,-0.057713959366083145,0.057727281004190445,0.05786699056625366,0.05786283314228058,0.05786815285682678,0.05779574066400528,0.05779328942298889,0.05783691257238388,0.05770384520292282,-0.05766993388533592,0.057864971458911896,-0.05774398893117905,-0.05776715278625488,-0.05776773393154144,-0.05783060938119888,-0.05786079913377762,0.004934362601488829,0.00491416547447443,0.000028149126592325047,-0.005075835157185793,-0.004937480203807354,0.005018936935812235,0.004962726030498743,0.005121761001646519,0.004906441085040569,0.004970185924321413,0.004913310054689646,0.005092553794384003,0.005015845876187086,-0.004916398786008358,0.004951880779117346,-0.00003917646608897485,-0.00010930888674920425,-0.00007935818575788289,-0.005032008979469538,-0.005090105812996626,0.008337765000760555,0.008383831940591335,0.00011199402069905773,-0.008352005854249,-0.008451270870864391,0.008450650610029697,0.008446954190731049,0.008336549624800682,0.008335471153259277,0.008435875177383423,0.008298713713884354,0.008384091779589653,0.008342280052602291,-0.008435861207544804,0.008419214747846127,-0.008225883357226849,0.000027346321076038294,-0.008309504017233849,-0.008286249823868275,-0.008409648202359676,-0.000051038448873441666,-0.00005528201654669829,-0.0000824008893687278,-0.000012055995284754317,0.00004874616570305079,-0.000015872768926783465,-0.00003374027437530458,0.00008599083957960829,-0.000053682018915424123,-0.00007318422285607085,-0.00008914327918319032,-0.0000652490634820424,-0.0000059291792240401264,0.00006561601185239851,-0.0000044144917410449125,0.00007489313429687172,0.00003978836321039125,-0.00007639692194061354,-0.000025376228222739883,0.00004194635039311834,0.053487956523895264,0.05335068702697754,0.053518250584602356,-0.05352161079645157,-0.05335960537195206,0.05340791493654251,0.05345061421394348,0.0534023642539978,0.05335615575313568,0.053343139588832855,0.053482480347156525,0.05353197455406189,0.05346841365098953,-0.05342550948262215,0.05348298326134682,-0.05341785401105881,-0.00495596369728446,-0.05347701907157898,-0.05339225381612778,-0.053454212844371796,-0.00007926760008558631,-0.00005859980592504144,-0.000015150825674936641,0.000022095960957813077,-0.000026945046556647867,-0.00005589765714830719,-0.00010643809946486726,0.000028839211154263467,0.000004243879175191978,0.00010975963232340291,-0.000102200050605461,-0.000024433958969893865,0.000019239631001255475,0.000026686611818149686,-0.000021182333512115292,-0.00004980045196134597,0.00006906151975272223,0.000040588864067103714,0.00004761941090691835,-0.00003195436511305161,0.0010691671632230282,0.0010618214728310704,0.00010754709364846349,-0.00008103364962153137,-0.0011175235267728567,0.0008555358508601785,-0.00007810594252077863,-0.00010129731526831165,0.0010381281608715653,-0.00005977605178486556,0.0011380184441804886,0.001070683472789824,0.0012136995792388916,-0.0011090681655332446,0.0008959259721450508,0.00007092353189364076,0.00009987165685743093,0.00009394581138622016,-0.0011870362795889378,-0.0010706130415201187,0.000040455317503074184,0.000042005132854683325,0.00001832834277593065,0.00009150529513135552,-0.000040059017919702455,0.00002263973146909848,-0.00004945476757711731,-0.000052481191232800484,0.000024900016796891578,0.0000798911351012066,0.000012905656149087008,0.000027110263545182534,-0.000041610310290707275,-0.00006649381975876167,0.000011035460374841932,0.00011152561637572944,-0.00004604515925166197,-0.000027144167688675225,0.00001693237391009461,0.000005368792699300684]},"outputBias":{"rows":20,"columns":1,"weights":[0.0002034250646829605,0,0.0000012029859135509469,0,0.000007881254532549065,0,0.0001186369190691039,0,0,0.00005029933527112007,0,0.032945286482572556,0.000007265121894306503,0,5.818583392880328e-9,4.561151172310929e-7,0.06681673973798752,1.9700806319633557e-7,0,0.00004096170960110612]},"cellActivationMatrix":{"rows":20,"columns":1,"weights":[0.016127366572618484,0.013411572203040123,0.0011177795240655541,-0.0356425866484642,-0.033483024686574936,0.03699982911348343,0.02905312553048134,0.006034742575138807,0.013509220443665981,0.03105315752327442,0.0038222079165279865,0.018957573920488358,0.010514609515666962,-0.034085750579833984,0.035697270184755325,-0.022076500579714775,-0.04015215113759041,-0.06896481662988663,-0.02042177878320217,-0.032674696296453476]},"cellActivationHidden":{"rows":20,"columns":20,"weights":[0.00010834424756467342,0.0000105752405943349,-0.00006576145096914843,0.0000875827026902698,0.000009797769052966032,-0.000008196159797080327,-0.000053972889872966334,-0.00004091667869943194,-0.0000016719708355594776,-0.00007176359213190153,-0.00007206774898804724,-0.00006067927097319625,0.00006061107706045732,-0.00008459598757326603,0.000059852609410881996,0.00006767901504645124,0.000029064387490507215,0.0000033493554383312585,0.000004950830316374777,-0.00004101988815818913,0.00009814892837312073,-0.00008007110591279343,-0.00002535811290726997,-0.00006295823550317436,-0.00010644795111147687,0.00003206228939234279,0.000013406625839706976,-0.000047810437536099926,-0.00007214725337689742,0.00002399617551418487,0.0000508470693603158,0.0001123941910918802,0.000059090438298881054,-0.000007034516784187872,0.00009594948642188683,0.000042095085518667474,0.00009808497270569205,0.00008976745448308066,0.00002210002094216179,-0.00008216231071855873,0.000042050902266055346,-0.00006238309288164601,0.00003449629366514273,-0.00006753160414518788,0.000016323676391039044,0.00005023566336603835,0.00005053348286310211,-0.00010464130900800228,-0.000009696335837361403,-0.00007336270209634677,-0.00010630307951942086,0.00004801891554961912,-0.00002363380372116808,-0.000017607004338060506,0.00010398708400316536,-0.00009183556539937854,0.00004798764712177217,0.000042329102143412456,-0.000026653153327060863,0.000016010877516237088,-0.0013853131094947457,-0.0012339457171037793,0.00003258022479712963,0.0013916692696511745,0.0013260485138744116,-0.001315392437390983,-0.0013040552148595452,-0.001212872564792633,-0.0014149759663268924,-0.0012622703798115253,-0.0012947762152180076,-0.0013583960244432092,-0.0013841077452525496,0.0012034615501761436,-0.001345813274383545,0.0013792515965178609,0.000024447239411529154,0.0012127864174544811,0.0013736371183767915,0.0012571364641189575,-0.0013992144959047437,-0.0014174891402944922,0.000007074317181832157,0.0014921814436092973,0.0015109758824110031,-0.0014789114939048886,-0.0014771483838558197,-0.0013101997319608927,-0.0014124446315690875,-0.0013995392946526408,-0.0013519910862669349,-0.0013019528705626726,-0.0013041577767580748,0.0014421663945540786,-0.0014592705992981791,0.0013212314806878567,-0.000011506646842462942,0.0015035673277452588,0.0013311293441802263,0.0014839612413197756,0.0015627769753336906,0.0016125128604471684,0.00006466302875196561,-0.001482228864915669,-0.0014957995153963566,0.0015829100739210844,0.0015715222107246518,0.0016658511012792587,0.001544868922792375,0.0016236798837780952,0.001495560398325324,0.0016556719783693552,0.0016644317656755447,-0.0015710863517597318,0.0015794627834111452,-0.0015384460566565394,-0.0000024214020868384978,-0.0016127231065183878,-0.0015487412456423044,-0.0016218957025557756,-0.000050469665438868105,0.000005088131274533225,-0.00003738453597179614,0.00004620533582055941,-0.000006038354968040949,0.00007921611540950835,0.000009063754987437278,-0.00009764534479472786,-0.00010600135283311829,0.00006657264020759612,0.00008389767026528716,0.000016790339941508137,0.00008041497494559735,-0.00007690244819968939,-0.00009833376680035144,-0.00003033542998309713,0.00007071823347359896,-0.00007709130295552313,0.00008353576413355768,-0.00009149505058303475,-0.000017151443898910657,0.00001041301766235847,-0.00006434039823943749,0.00005710776895284653,0.00008872634498402476,-0.00004280694338376634,0.000030163313567754813,0.00005645922647090629,-0.00006527901132358238,-0.000056839766330085695,0.000042784242396010086,0.000006277987267822027,0.00009343759302282706,-0.00010615651990519837,-0.00006819735426688567,-0.00008427644934272394,0.00000952559548750287,-0.00004966575943399221,0.00009221851360052824,-0.00009036852134158835,0.000606000714469701,0.0004665106534957886,0.00006816280074417591,-0.0004976689233444631,-0.0004671326605603099,0.0004755594418384135,0.0000798877008492127,0.0005489123868755996,0.0005187705392017961,0.0004578790394589305,0.0006368366302922368,0.0004936712794005871,0.00052142288768664,-0.00045323511585593224,0.0005984576418995857,-0.000059066245739813894,0.0000826254763524048,-0.00010106710396939889,-0.0006224095122888684,-0.0004754428518936038,0.00005117870387039147,0.00009692164167063311,5.532924092221947e-7,0.000005604333182418486,-0.00007714676758041605,-0.00010568054858595133,-0.00003397476393729448,-0.000068360757722985,0.00006984522042330354,0.00010242123971693218,0.000012904561117466073,-0.00004168128361925483,-0.00005395372136263177,0.000038023150409571826,-0.00004669869667850435,-0.000014003195246914402,0.0000738600647309795,0.00005761034117313102,-0.000055633521697018296,-0.00006156505696708336,0.000043573625589488074,0.00003811268834397197,-0.00005828485154779628,0.00004733004971058108,-0.00004292766607250087,0.00004409032771945931,-0.00008738363248994574,-0.00008974701631814241,0.00017775008745957166,0.00009956268331734464,0.00005612648237729445,0.00004336734127718955,0.000022098274712334387,-0.00012248396524228156,0.000022279366021393798,0.000017921036487678066,-0.000055940432503120974,-0.00002184972800023388,-0.00020947876328136772,-0.000041344432247569785,0.00008097961836028844,0.00004871236887993291,0.00007821393228368834,-0.00007886003731982782,-0.00010481906065251678,-0.00010322365415049717,0.00010611850302666426,-0.000009252692507288884,-0.00010629391181282699,-0.00004507596531766467,0.00007781930617056787,-0.00009701359522296116,0.00011245592031627893,-0.00009844310261541978,-0.000007555295269412454,-0.00010720236605266109,-0.00006711399328196421,0.000049806400056695566,0.00004202270065434277,-0.00009841366409091279,0.0005731803248636425,0.000537860905751586,-0.00005486212467076257,-0.0004044015076942742,-0.0005108321784064174,0.0004954098258167505,-0.00006173698784550652,0.0004003875073976815,0.0004737264243885875,0.00005063731805421412,0.0005412022583186626,0.00040519441245123744,0.00041892111767083406,-0.0004643722204491496,0.0005855985218659043,-0.0000511911821376998,-0.00006395948003046215,0.00006269489676924422,-0.0004891424323432148,-0.0005657895235344768,-0.0012987232767045498,-0.001315079745836556,-0.00010994713375112042,0.0014162961160764098,0.0013479416957125068,-0.001302605145610869,-0.0013187492731958628,-0.0014188633067533374,-0.0014921792317181826,-0.0014053740305826068,-0.001385818119160831,-0.0014497911324724555,-0.0014135729288682342,0.0012909494107589126,-0.0014669682132080197,0.0014047353761270642,-0.00004609133247868158,0.0014994891826063395,0.001391668221913278,0.0012970214011147618,0.0015630063135176897,0.0014586682664230466,-0.00009569091344019398,-0.0015037113334983587,-0.0016655763611197472,0.0015480360016226768,0.001531202462501824,0.0015759605448693037,0.0014990682248026133,0.0015501714078709483,0.0015260596992447972,0.0014430409064516425,0.0015764071140438318,-0.0015061224112287164,0.0015995841240510345,-0.0014803383965045214,-0.00010647879389580339,-0.001499693258665502,-0.00146584736648947,-0.0014646537601947784,-0.0013360979501158,-0.0013497862964868546,0.00004784886186826043,0.0011874133488163352,0.001190811861306429,-0.0011979397386312485,-0.0013194975908845663,-0.0013630975736305118,-0.0012667346745729446,-0.0013253262732177973,-0.0012219762429594994,-0.001333724707365036,-0.0012697926722466946,0.0011682059848681092,-0.0013367156498134136,-0.00006016459155944176,-0.0000020755567220476223,9.344213367512566e-7,0.001306049874983728,0.0012424817541614175,-0.007651165127754211,-0.0076112085953354836,-0.007532656192779541,0.007697162218391895,0.00767797976732254,-0.007626637816429138,-0.007593773305416107,-0.007725883275270462,-0.00770704448223114,-0.007528186775743961,-0.007632340304553509,-0.0075117601081728935,-0.007700439542531967,0.007655590772628784,-0.00758704636245966,0.007530982606112957,-0.00003627295154728927,0.007615149952471256,0.007646625861525536,0.00764058344066143,-0.00005875337956240401,0.0000981706689344719,-0.00008046202856348827,-0.000007226985871966463,0.00001928613164636772,-0.00009789910836843774,0.00003820648635155521,-0.00006773888162570074,0.000019880468244082294,-0.000059838312154170126,-0.00010881703929044306,0.00009821276034926996,0.000092147289251443,-0.000005368593974708347,-0.00010912077414104715,-0.000058785430155694485,0.00006546056101797149,-0.00009379563562106341,-0.000009875483556243125,-0.00003086157448706217,-0.00072846794500947,-0.0008709702524356544,0.0000372848917322699,0.0007943592499941587,0.0007815426215529442,-0.0009234966710209846,-0.000864513567648828,-0.0008744810475036502,-0.0009133021812886,-0.0008990426431410015,-0.0008039361564442515,-0.0008520371047779918,-0.000917609897442162,0.0008283407078124583,-0.0008312121499329805,0.00008485995203955099,0.00008876441279426217,-0.000014020933122083079,0.0008848988218232989,0.0007283769082278013,-0.0011703337077051401,-0.0012407826725393534,-0.00007734456448815763,0.0012318857479840517,0.0012507631909102201,-0.0012050732038915157,-0.0012197488686069846,-0.0012515988200902939,-0.001210035989060998,-0.0012078139698132873,-0.0012914470862597227,-0.0011365681421011686,-0.0011253163684159517,0.0012217352632433176,-0.001177582424134016,0.0011203852482140064,-0.000014118952094577253,0.0011338002514094114,0.0011246949434280396,0.0011765200179070234]},"cellActivationBias":{"rows":20,"columns":1,"weights":[0.006150985602289438,0.0038905891124159098,2.6472735115135038e-8,0,0,0,0.0030834039207547903,0.000006232696250663139,0,0.007111120503395796,0.00018879296840168536,0.005701257381588221,0,0,0,-0.0009301382815465331,-0.002880166517570615,-0.012561051174998283,0,0]}}],"outputConnector":{"rows":1,"columns":20,"weights":[1.4973766803741455,1.4973766803741455,1.3288795948028564,-1.4831621646881104,-1.5074982643127441,1.5198259353637695,1.4310365915298462,1.4842854738235474,1.4973766803741455,1.4743982553482056,1.4973766803741455,1.4973766803741455,1.4973766803741455,-1.4973766803741455,1.4973766803741455,-1.4061319828033447,-1.2632228136062622,-1.393538236618042,-1.4973766803741455,-1.4973766803741455]},"output":{"rows":1,"columns":1,"weights":[5.428969860076904]},"inputLookup":null,"inputLookupLength":0,"outputLookup":null,"outputLookupLength":0}