{"type":"LSTMTimeStep","options":{"inputSize":1,"inputRange":0,"hiddenLayers":[20],"outputSize":1,"decayRate":0.999,"smoothEps":1e-8,"regc":0.000001,"clipval":5,"maxPredictionLength":100,"dataFormatter":{"indexTable":{},"characterTable":{},"characters":[],"specialIndexes":[]}},"hiddenLayers":[{"inputMatrix":{"rows":20,"columns":1,"weights":[-0.06317300349473953,-0.0684940367937088,0.06573214381933212,0.0053535522893071175,0.020229754969477654,0.014736246317625046,0.041064340621232986,0.04568454995751381,-0.028743965551257133,-0.02621878683567047,-0.05477510020136833,0.05533900484442711,0.050886645913124084,-0.06108418107032776,-0.06270428001880646,-0.01256842166185379,-0.04037051647901535,-0.06341197341680527,0.05421879515051842,0.024627605453133583]},"inputHidden":{"rows":20,"columns":20,"weights":[-0.0183001346886158,0.031238773837685585,-0.06569389253854752,-0.05333424732089043,0.025449642911553383,-0.07358811795711517,0.0527651272714138,-0.029575608670711517,-0.04535245522856712,0.044908132404088974,-0.010621828027069569,0.03906365483999252,0.05003434419631958,-0.03888695314526558,-0.022338850423693657,-0.047715798020362854,0.0035294806584715843,0.033855143934488297,-0.009910546243190765,-0.018035931512713432,0.04230697825551033,-0.018869079649448395,0.03878391161561012,0.029386190697550774,0.026887133717536926,0.019365157932043076,-0.013960402458906174,0.01046406663954258,-0.06531305611133575,0.01667744480073452,0.015961524099111557,0.044557224959135056,-0.06312622874975204,0.04005434364080429,-0.06877797096967697,-0.06675077229738235,-0.006307356990873814,-0.04727780073881149,0.0567425899207592,0.0696510300040245,0.016199246048927307,0.0727182999253273,-0.013618177734315395,0.0632275938987732,0.023907262831926346,-0.04386165738105774,0.030138719826936722,0.03246275335550308,0.06421205401420593,-0.053973183035850525,-0.05186646431684494,0.0647820457816124,0.011026992462575436,0.0004613769706338644,0.05061934143304825,-0.03512897342443466,0.06999512761831284,-0.03910486772656441,-0.024743791669607162,-0.015035253018140793,0.066503144800663,-0.03331257775425911,0.02287745662033558,-0.04363689571619034,-0.04540738835930824,0.05561678111553192,-0.07210073620080948,-0.024277687072753906,0.001594092696905136,0.06088224798440933,-0.05502971261739731,-0.058141425251960754,-0.01614012010395527,-0.03733197599649429,0.016821635887026787,0.02218463271856308,-0.02325846627354622,0.00963941216468811,0.07026373594999313,0.05285930633544922,-0.04219011962413788,0.06436081230640411,0.053034357726573944,0.07309649884700775,0.007774675730615854,0.057844378054142,-0.02022979035973549,0.04272111877799034,0.06227793172001839,0.005980044137686491,-0.03139982745051384,0.06942975521087646,0.017678285017609596,-0.030397433787584305,0.050505418330430984,-0.06442904472351074,-0.026317182928323746,0.02383502759039402,-0.04435534030199051,0.060851216316223145,-0.06223925203084946,0.03112976625561714,0.0038287860807031393,0.03936693072319031,-0.06023754924535751,0.0169068593531847,-0.00848059169948101,-0.019092123955488205,-0.028399525210261345,0.020382964983582497,0.06926045566797256,0.06993413716554642,0.04244296997785568,0.0160564836114645,0.05152428150177002,0.021100357174873352,0.007782372646033764,-0.019348353147506714,0.032530851662158966,0.04109765216708183,0.029074881225824356,-0.04952450469136238,0.01236212532967329,-0.02623414807021618,-0.06563432514667511,-0.013834754005074501,0.069724440574646,0.05263381823897362,0.07245349884033203,0.03265406936407089,-0.03361061215400696,0.06253212690353394,0.017788909375667572,-0.05870626121759415,-0.059594303369522095,0.06132250651717186,-0.06619666516780853,0.014157346449792385,-0.05617499351501465,-0.03761313110589981,0.05762778967618942,-0.002368208020925522,0.04095194488763809,0.00280890055000782,-0.000853925826959312,0.02178201638162136,0.05739152804017067,0.05492229759693146,0.0002221258037025109,0.011554239317774773,0.035328712314367294,0.05418893322348595,-0.064860999584198,-0.044583726674318314,0.05635935813188553,-0.0034553874284029007,0.0663784071803093,0.021231211721897125,0.022745637223124504,-0.02036600559949875,0.03048299252986908,-0.030656740069389343,-0.06386175006628036,-0.0012938430299982429,0.06579991430044174,-0.0031349915079772472,-0.016676312312483788,-0.030122045427560806,0.01074494794011116,-0.0386580228805542,-0.026752302423119545,-0.0055353231728076935,0.019857697188854218,0.01459086686372757,0.06920760124921799,0.07191088795661926,-0.049800802022218704,-0.04018541797995567,0.04606025665998459,0.06367014348506927,-0.03931491822004318,-0.02950689010322094,0.04852324351668358,0.0031680772081017494,0.022580260410904884,-0.03926908224821091,-0.03766516596078873,-0.06294717639684677,0.028847452253103256,-0.010955244302749634,-0.03730786219239235,0.03347290679812431,-0.06275750696659088,-0.032784558832645416,-0.06995509564876556,0.007739659398794174,-0.06053634732961655,0.033945683389902115,-0.01793482154607773,-0.05622925981879234,0.02458030730485916,0.04149847477674484,-0.04681364819407463,0.07289852201938629,0.007613001391291618,0.06850340217351913,-0.06384589523077011,-0.034941818565130234,0.029565542936325073,-0.01547776535153389,-0.06329534202814102,-0.029273606836795807,0.025522548705339432,-0.057277657091617584,0.00885133258998394,0.06069154292345047,0.0736214891076088,-0.003443160792812705,0.011560212820768356,-0.06629753112792969,-0.01930948905646801,-0.03609321638941765,-0.016505636274814606,0.05586409568786621,-0.060147419571876526,0.06798594444990158,0.02074618823826313,0.00939425639808178,-0.004675711039453745,-0.0013921749778091908,0.07256379723548889,-0.06890497356653214,0.03366388380527496,-0.020155172795057297,0.02741529978811741,-0.019837649539113045,-0.06915967166423798,-0.07079284638166428,-0.0736052468419075,-0.036662548780441284,0.0715966522693634,0.04787581413984299,-0.04402579739689827,0.010244522243738174,0.049111977219581604,-0.036352626979351044,-0.0054920511320233345,-0.054534561932086945,0.008253670297563076,0.03227371349930763,0.06374591588973999,0.022891012951731682,-0.05384198948740959,-0.01644469052553177,0.07219087332487106,-0.04961743205785751,0.0124645521864295,0.017610855400562286,0.061322249472141266,-0.009414510801434517,0.0642126128077507,-0.05947498232126236,0.019735047593712807,-0.007745556998997927,-0.030861221253871918,-0.007178225088864565,-0.05584440752863884,-0.018644805997610092,-0.05559655278921127,-0.03289128094911575,0.0219322107732296,-0.017130019143223763,-0.04419434070587158,0.020026907324790955,0.06531443446874619,-0.06375943869352341,-0.06070508807897568,-0.06707210093736649,-0.021375376731157303,-0.019240092486143112,-0.04596204683184624,0.03289330378174782,0.00007570237357867882,-0.05845721811056137,-0.06451576948165894,0.0096147945150733,-0.0543077252805233,-0.00798376090824604,-0.05770742893218994,-0.07332824915647507,-0.04927857592701912,-0.044378187507390976,-0.022051222622394562,0.031391046941280365,0.04278601333498955,-0.007820037193596363,0.0592164620757103,-0.03709658607840538,0.009548344649374485,0.044908832758665085,0.0668511912226677,-0.020749973133206367,-0.05216885358095169,0.029611587524414062,-0.0402076281607151,-0.07270439714193344,0.07212035357952118,0.06489696353673935,0.005181982647627592,0.015679849311709404,-0.01482086069881916,0.032293591648340225,0.012482872232794762,-0.058074697852134705,-0.024757051840424538,0.006254670675843954,-0.023676257580518723,0.01989966817200184,-0.02241823635995388,0.03489361330866814,-0.04461781308054924,0.04434702917933464,0.071904756128788,0.02924015000462532,-0.0314861461520195,-0.04248691350221634,0.007158269640058279,0.007486655842512846,0.016443738713860512,-0.0463770292699337,0.0653400644659996,-0.032123152166604996,-0.025616172701120377,-0.02268344722688198,0.0685572624206543,-0.07293199002742767,0.0681268721818924,0.010557818226516247,0.008845730684697628,-0.04066194221377373,-0.07213560491800308,0.04469818249344826,-0.022719992324709892,-0.015677986666560173,-0.048092905431985855,-0.027095109224319458,-0.05831112712621689,0.031281471252441406,0.06357065588235855,0.026885531842708588,-0.05395173653960228,-0.05456319451332092,0.016840824857354164,0.049145590513944626,0.04079137369990349,0.003514060517773032,-0.015426091849803925,0.03996835649013519,-0.02559495158493519,0.009476535953581333,-0.05734869837760925,-0.058116670697927475,-0.0007870970293879509,-0.038010403513908386,-0.019033091142773628,0.03601870685815811,-0.0325142927467823,0.01073769386857748,-0.06154244765639305,-0.012741676531732082,-0.033228181302547455,0.049819737672805786,-0.04686190187931061,-0.0019823918119072914,-0.07184680551290512,0.006275386083871126,-0.02307146228849888,-0.026681864634156227,-0.025273459032177925,0.060986097902059555,0.0530569888651371,-0.036516547203063965,0.032578643411397934,-0.01419126708060503,0.027798589318990707,0.03627784550189972,-0.06319189071655273,0.011619087308645248,0.04525085166096687,0.04517844319343567,-0.07356857508420944,0.06556671857833862,0.04496372491121292,0.023301173001527786,-0.07117873430252075,0.04747823625802994,-0.005931687541306019,0.04486856609582901,-0.0016810235101729631,-0.058133967220783234]},"inputBias":{"rows":20,"columns":1,"weights":[0,0,0,0,0,0,0,0,0,0,0,0,0,0,0,0,0,0,0,0]},"forgetMatrix":{"rows":20,"columns":1,"weights":[0.016443589702248573,0.06375248730182648,-0.024827465415000916,-0.01988726481795311,-0.02340499497950077,0.06012463569641113,-0.0038197170943021774,0.00821814127266407,0.021137727424502373,0.059565335512161255,0.030475322157144547,0.020773544907569885,0.01880250871181488,-0.04164208099246025,-0.05189673230051994,-0.04170430451631546,-0.0029618304688483477,0.05612104758620262,-0.04384046420454979,0.023217886686325073]},"forgetHidden":{"rows":20,"columns":20,"weights":[0.07070238888263702,-0.05839291960000992,-0.05287531763315201,-0.07105216383934021,0.049993161112070084,-0.028535138815641403,0.03406931087374687,0.07156722992658615,-0.05744684115052223,-0.03782594949007034,0.06048025190830231,-0.06136605143547058,0.0424114353954792,0.015064876526594162,0.027549047023057938,0.07318951189517975,0.010885446332395077,0.03374680504202843,-0.061273619532585144,0.06845803558826447,-0.04849757254123688,-0.01608821377158165,-0.02225257270038128,-0.049675941467285156,0.05619886517524719,-0.021393537521362305,0.047472354024648666,0.0609394870698452,0.013987546786665916,-0.009274337440729141,-0.043947190046310425,-0.03287117928266525,0.026460690423846245,0.0025101222563534975,-0.0019225296564400196,0.0036687441170215607,0.04766068980097771,-0.016450006514787674,-0.01095918845385313,0.029747407883405685,0.0031351125799119473,0.02631734497845173,0.05128314718604088,-0.06247415766119957,-0.023419532924890518,-0.007760987617075443,0.04112502560019493,-0.050144802778959274,-0.0007185572758316994,-0.05120367184281349,-0.018231015652418137,-0.008648472838103771,-0.055434904992580414,0.032442107796669006,-0.017864499241113663,-0.05766298621892929,-0.06887976080179214,-0.03240874782204628,0.06718680262565613,-0.00833298359066248,-0.030979948118329048,0.028595224022865295,-0.03231724351644516,0.001487515983171761,-0.03279385343194008,-0.021733423694968224,0.06833724677562714,0.07074245065450668,-0.026838213205337524,-0.07056999951601028,-0.044836174696683884,-0.034580130130052567,0.016301797702908516,-0.0626939982175827,0.03993585705757141,-0.037778403609991074,-0.03648293763399124,-0.05952828750014305,-0.05607786402106285,-0.02187926135957241,-0.01054438017308712,-0.015028858557343483,0.06914114207029343,0.04049135744571686,-0.01026267372071743,0.054523952305316925,0.041905611753463745,0.05414116755127907,-0.03444682061672211,-0.0004386254877317697,-0.0634976327419281,0.01460801437497139,0.03896113857626915,0.0026452112942934036,0.011476561427116394,0.0013143470278009772,-0.02699577808380127,-0.0014251325046643615,-0.0601370632648468,-0.061437007039785385,0.020498936995863914,0.024020057171583176,0.055966608226299286,0.07373082637786865,-0.0062762233428657055,0.06474421173334122,-0.029268749058246613,-0.055220358073711395,-0.0735214352607727,0.07119779288768768,0.007842916995286942,-0.012301160953938961,0.0504012256860733,0.0468011200428009,0.05339769273996353,-0.05962154269218445,0.07051427662372589,0.04353705048561096,0.06724169850349426,0.04472307860851288,-0.028320567682385445,-0.05079632252454758,0.04475599527359009,-0.04929869994521141,0.04470290243625641,-0.010481798090040684,0.02818980999290943,0.06519895792007446,-0.03980247303843498,-0.01082682702690363,0.0020700714085251093,-0.053601957857608795,0.0461689829826355,-0.07088275998830795,0.0622810423374176,0.051107533276081085,-0.040823012590408325,0.046099934726953506,-0.020381297916173935,-0.00040964706568047404,0.03826947510242462,0.030917184427380562,-0.005379439331591129,0.009579416364431381,0.05867701768875122,0.02240034006536007,-0.06501498818397522,0.031215419992804527,-0.04736996442079544,-0.037435226142406464,-0.03720789775252342,-0.056209009140729904,0.05859048664569855,-0.07314454764127731,0.06969563663005829,-0.05223902314901352,-0.01842735894024372,-0.047828420996665955,0.012949011288583279,0.06385563313961029,0.0679721012711525,-0.027887947857379913,0.007800139486789703,0.01896429806947708,0.019741956144571304,0.01139083132147789,-0.04397852346301079,0.005567019805312157,-0.057645659893751144,-0.06759393960237503,-0.0674746185541153,0.02468007057905197,-0.06327713280916214,-0.03363208845257759,-0.037681419402360916,0.069214828312397,-0.013555885292589664,0.02885938622057438,-0.06522825360298157,0.05877154693007469,-0.03675180673599243,0.015860209241509438,0.062464721500873566,-0.0384957529604435,-0.03971337154507637,0.03193087875843048,0.022440962493419647,-0.06615298986434937,0.020558055490255356,-0.02079853229224682,-0.02383986860513687,0.04993211105465889,0.06605019420385361,-0.0153199452906847,0.045447759330272675,0.06390133500099182,-0.0679188147187233,0.049450360238552094,-0.014912867918610573,0.03781910985708237,-0.0031860992312431335,-0.0016907015815377235,-0.05173654109239578,0.03739042580127716,-0.062008365988731384,-0.01221234630793333,0.056432828307151794,-0.019508512690663338,-0.05656450241804123,0.05148874968290329,-0.058277569711208344,-0.04955954849720001,-0.04732447490096092,-0.039732612669467926,0.025903576985001564,-0.0628584623336792,-0.0006453709793277085,0.034421298652887344,0.04119708016514778,0.009783328510820866,-0.05526382848620415,-0.05086589604616165,-0.029857594519853592,-0.00519445538520813,-0.07331498712301254,-0.04380019009113312,-0.0248409416526556,0.009469790384173393,-0.017099909484386444,0.03788534179329872,0.004122418817132711,0.006694435141980648,-0.052060000598430634,-0.057485390454530716,0.011065433733165264,-0.02271253988146782,-0.044285211712121964,-0.05493168532848358,-0.03366461023688316,0.00159854453522712,-0.05498519167304039,-0.04116794094443321,0.07384010404348373,-0.021890101954340935,-0.06953900307416916,0.0020399438217282295,-0.015681803226470947,0.03002917766571045,0.0433989092707634,0.049403417855501175,0.029527001082897186,0.01481622364372015,-0.061037108302116394,-0.030002474784851074,-0.06276159733533859,-0.015613740310072899,-0.031941771507263184,0.047760095447301865,0.003050395520403981,-0.06183269992470741,0.0645696148276329,0.03438674658536911,0.014500895515084267,-0.00585243571549654,-0.029251717031002045,0.07087769359350204,0.0008382353116758168,-0.016636276617646217,0.02985156700015068,0.06900310516357422,-0.008759710006415844,-0.025276530534029007,-0.04507553577423096,0.027722779661417007,0.029700011014938354,0.024874219670891762,0.06652399897575378,0.04096142202615738,0.06364908069372177,0.05104612931609154,0.009425967931747437,0.044429413974285126,-0.009332788176834583,-0.00621830252930522,0.0016134569887071848,-0.06322463601827621,0.003988589625805616,0.028282364830374718,0.02760055661201477,-0.037316009402275085,-0.04339754208922386,0.06742888689041138,-0.03778345137834549,-0.06925801187753677,-0.05826321989297867,0.016323089599609375,-0.018709316849708557,-0.01845647394657135,0.07135564088821411,0.030137229710817337,-0.009048297069966793,-0.015247713774442673,0.03736571967601776,-0.012065821327269077,-0.00688354903832078,-0.06579427421092987,-0.0235858466476202,0.056071680039167404,0.028728537261486053,0.004127460066229105,0.06126759201288223,-0.07077652961015701,-0.039070047438144684,0.0658767819404602,-0.0017228679498657584,0.06333916634321213,0.025747232139110565,-0.01194791216403246,0.06842448562383652,0.05652784928679466,0.05808518826961517,0.04689181223511696,-0.011765023693442345,-0.006970025133341551,-0.07068074494600296,-0.0018627909012138844,-0.01080562174320221,0.011433033272624016,0.0719023048877716,-0.02637520432472229,0.05561698228120804,0.0500580333173275,-0.017222153022885323,-0.023232055827975273,-0.036218252032995224,-0.06891106069087982,0.03387968987226486,-0.0061893281526863575,-0.026751808822155,-0.013204679824411869,-0.07076314091682434,-0.07078506052494049,0.03126198798418045,-0.019836245104670525,-0.05608511343598366,0.028263498097658157,-0.03768269717693329,0.03289947286248207,0.054707445204257965,0.036888450384140015,-0.03490627557039261,0.0024171078111976385,0.0070406049489974976,0.05074436962604523,-0.0008235789719037712,-0.04223364591598511,0.04955461621284485,-0.044961944222450256,0.04328037053346634,0.014315050095319748,0.0537375807762146,-0.05732055380940437,0.011637776158750057,-0.04065119847655296,0.059463463723659515,0.02741655334830284,-0.0577685609459877,-0.0033203563652932644,0.004361384082585573,-0.04980667307972908,0.04085922613739967,0.053337462246418,0.04772515222430229,0.04792395979166031,-0.05714244768023491,-0.02440411038696766,-0.05007319524884224,-0.05241730064153671,-0.02156740054488182,0.0017486296128481627,0.016121363267302513,-0.06262663006782532,0.022384412586688995,-0.01360328495502472,-0.004582295194268227,-0.007284916937351227,-0.0044527300633490086,-0.053591288626194,-0.06119684875011444,0.019185934215784073,0.0498766265809536,0.040098220109939575,0.05106635019183159,-0.006970691028982401,-0.002258368069306016,-0.046014830470085144,-0.031683940440416336,0.032939739525318146,0.05728311464190483,-0.023380914703011513]},"forgetBias":{"rows":20,"columns":1,"weights":[0,0,0,0,0,0,0,0,0,0,0,0,0,0,0,0,0,0,0,0]},"outputMatrix":{"rows":20,"columns":1,"weights":[0.021962599828839302,0.04380778595805168,-0.06325388699769974,-0.016822434961795807,-0.01140537392348051,0.005723088979721069,-0.04143780469894409,0.006121725309640169,-0.039780426770448685,0.005307442974299192,0.014950349926948547,-0.03358962759375572,0.06762116402387619,-0.04879872128367424,0.03023429587483406,-0.016775015741586685,0.06837978959083557,-0.047807108610868454,-0.017531894147396088,0.010063954629004002]},"outputHidden":{"rows":20,"columns":20,"weights":[-0.07179069519042969,0.01541089080274105,-0.04744428023695946,-0.029698345810174942,0.03722354769706726,0.022329391911625862,-0.061429157853126526,-0.0239110104739666,0.06140527129173279,-0.05531478673219681,0.01022135466337204,0.06080220639705658,0.06383761763572693,0.0382222943007946,0.03697287663817406,0.04517703503370285,-0.06028863787651062,-0.028656885027885437,-0.0729343518614769,-0.02599123679101467,0.04831474646925926,0.050481799989938736,-0.03160283342003822,-0.042092181742191315,-0.0685771182179451,0.047529056668281555,0.06692124903202057,-0.029456336051225662,-0.05787752568721771,-0.010313887149095535,-0.017947424203157425,0.05767830088734627,0.020637767389416695,0.06729614734649658,0.03598811849951744,0.05559372529387474,0.02778969332575798,0.044362783432006836,0.04576105251908302,-0.057023391127586365,-0.017746319994330406,-0.05539243668317795,-0.030733833089470863,0.03511446714401245,0.04094506800174713,-0.03636141121387482,0.07211041450500488,-0.060633301734924316,0.034189097583293915,0.06163070723414421,-0.011040857061743736,0.03919624909758568,0.03117312490940094,-0.05742223188281059,0.036839745938777924,0.06603074073791504,-0.005266015417873859,0.007393285632133484,-0.002561945701017976,-0.003477794583886862,-0.06375354528427124,0.05711973458528519,-0.015799079090356827,-0.007948222570121288,0.06063252314925194,0.06524046510457993,-0.06824710220098495,-0.04689935967326164,-0.0018040281720459461,0.0004425365768838674,0.0038275374099612236,-0.0271841362118721,0.05259518697857857,-0.0393545962870121,0.046332526952028275,-0.0400393083691597,0.05222437530755997,-0.03901299834251404,0.020452352240681648,0.007294825743883848,-0.004823234397917986,0.04224349930882454,0.05740715190768242,0.013151007704436779,-0.05730610713362694,0.02894008904695511,0.062205616384744644,-0.054115086793899536,-0.05766028165817261,0.0623093843460083,-0.03116682358086109,0.04452355206012726,-0.009348302148282528,-0.06007561832666397,-0.07050149142742157,0.05224175751209259,0.046527471393346786,-0.0663771852850914,-0.015360016375780106,-0.051399290561676025,0.031788572669029236,-0.021236602216959,0.007928412407636642,0.02324564754962921,0.016860585659742355,0.005800753366202116,0.0019340388244017959,-0.022889897227287292,0.05965942144393921,0.06837202608585358,-0.03720356151461601,0.043521199375391006,0.0190908070653677,-0.05329027399420738,-0.04276729002594948,-0.05709204450249672,-0.031334467232227325,0.008641572669148445,0.04472760483622551,-0.01660064049065113,-0.066092848777771,-0.07270702719688416,-0.048423536121845245,0.02120240405201912,0.0737057626247406,-0.027955133467912674,-0.038981758058071136,0.06553389132022858,-0.007245314307510853,0.045030348002910614,0.003005800535902381,0.05199366807937622,-0.0610896497964859,0.028372226282954216,0.023381270468235016,0.0276382714509964,0.034369710832834244,-0.021381916478276253,0.007280850782990456,0.030275002121925354,-0.05846951901912689,0.0723816454410553,0.03502924367785454,-0.03251783177256584,-0.020014377310872078,0.03944011405110359,0.06790907680988312,0.031161712482571602,0.026713130995631218,0.0022512623108923435,0.06799449026584625,0.011300710961222649,-0.071600541472435,0.06931658089160919,0.03524519503116608,-0.014483063481748104,-0.0079755038022995,-0.06197154149413109,0.0035677982959896326,-0.06494732946157455,0.028450334444642067,-0.030003082007169724,-0.06808783859014511,-0.010534746572375298,0.013411661610007286,0.05895218253135681,-0.055842526257038116,0.012141681276261806,-0.06960874795913696,-0.06602808088064194,0.03349154442548752,0.006631381809711456,0.042306266725063324,-0.012706086039543152,0.023732516914606094,0.04094361513853073,0.007498670369386673,0.058069225400686264,-0.06135646998882294,0.057537421584129333,0.04613287001848221,-0.04448214918375015,0.027340412139892578,-0.020041896030306816,0.014813958667218685,-0.024555876851081848,0.041386958211660385,0.0128328213468194,0.06101517379283905,-0.06893552839756012,-0.023351183161139488,-0.02933032065629959,-0.004251996520906687,-0.019088609144091606,0.027629202231764793,-0.0027823017444461584,0.056197911500930786,0.031225742772221565,-0.06508469581604004,0.06335075944662094,0.03514079004526138,0.02275225706398487,-0.001923789270222187,0.040407221764326096,-0.06435146927833557,-0.02929241955280304,-0.04187741130590439,-0.010221714153885841,-0.0028070632833987474,0.05077117681503296,0.03281451761722565,0.022598743438720703,-0.06226424500346184,0.03408391773700714,0.012246492318809032,0.07202817499637604,0.06309548765420914,-0.04184115305542946,-0.028011754155158997,0.0018424632726237178,0.058682702481746674,0.052056796848773956,-0.010515948757529259,-0.03563894331455231,-0.06989318132400513,-0.012061014771461487,-0.010553020052611828,-0.013786308467388153,0.039603058248758316,0.0053935181349515915,-0.06293576955795288,0.029902562499046326,0.05145079642534256,-0.07036308944225311,0.01673780381679535,0.07029544562101364,-0.03828093409538269,-0.0013608159497380257,-0.06652667373418808,-0.053235992789268494,-0.029452845454216003,0.026563923805952072,0.055770937353372574,0.015280494466423988,0.010422325693070889,-0.0520421639084816,-0.008034095168113708,0.04984318092465401,0.0723816454410553,0.06574002653360367,-0.05943555384874344,0.04990687593817711,-0.023037485778331757,-0.004440093878656626,-0.014736365526914597,0.06657849252223969,0.044109806418418884,-0.030932214111089706,-0.028775814920663834,-0.05471959710121155,-0.02106538601219654,0.046726152300834656,-0.0506952628493309,-0.00022867985535413027,0.03856144845485687,-0.06937724351882935,0.035289227962493896,-0.0030210858676582575,-0.04934639483690262,0.00628305459395051,0.022053498774766922,-0.014662545174360275,0.062298618257045746,0.049423299729824066,-0.0006300982786342502,-0.020034566521644592,0.06726985424757004,-0.034360822290182114,-0.011196713894605637,-0.029086533933877945,-0.04528325796127319,-0.07100899517536163,0.059741437435150146,-0.03196501359343529,-0.04462503641843796,-0.005469864699989557,0.05603816732764244,0.011115794070065022,-0.025934768840670586,0.0342416986823082,0.035132359713315964,-0.0642452985048294,-0.05812321603298187,0.059684477746486664,0.0305015929043293,-0.026977423578500748,0.06579803675413132,0.04298396036028862,-0.03915981203317642,0.07260335236787796,-0.02167234756052494,-0.010671495459973812,-0.04795980826020241,0.021525608375668526,-0.018027478829026222,-0.04194420948624611,0.004198476206511259,-0.02184562385082245,-0.031459007412195206,-0.05626007914543152,-0.06326206773519516,-0.050229672342538834,-0.008907684125006199,-0.013544484972953796,-0.02593950182199478,0.016050435602664948,0.022337092086672783,0.04139188677072525,0.04477376118302345,-0.0016211285255849361,0.0027968399226665497,0.0097891166806221,-0.06408365070819855,0.005307772196829319,-0.0071945227682590485,0.05159372091293335,-0.01182236522436142,-0.0267951637506485,0.06716405600309372,0.059106118977069855,0.04635973647236824,-0.04303053021430969,-0.009718568995594978,-0.0698043629527092,-0.05087489262223244,0.03454011678695679,-0.045218225568532944,0.0025560634676367044,-0.025252941995859146,-0.037219397723674774,-0.014866100624203682,-0.005483489483594894,0.03619271516799927,0.01116055529564619,-0.023665878921747208,0.029812149703502655,0.06380544602870941,0.049451109021902084,0.020137488842010498,0.023619642481207848,0.018765192478895187,-0.022283589467406273,0.0004643199499696493,0.0019441585754975677,0.072624072432518,0.05816271901130676,-0.02741440385580063,-0.07341998815536499,0.05237544700503349,-0.06870069354772568,-0.057101402431726456,0.03215712681412697,-0.06282881647348404,-0.03726479411125183,-0.028645358979701996,-0.040565744042396545,0.06722794473171234,0.0531991682946682,-0.043374188244342804,-0.004839892499148846,0.03759331628680229,0.02009008079767227,0.07316144555807114,-0.045095160603523254,-0.06416359543800354,-0.009268542751669884,-0.02220769226551056,-0.021785471588373184,0.019422532990574837,0.05754787102341652,-0.05392464995384216,0.06286539882421494,-0.06061577424407005,-0.0396968312561512,-0.0016387728974223137,0.06005335599184036,0.0016847929218783975,-0.003686536569148302,-0.05177031829953194,0.05998261272907257,0.003519366029649973,-0.06921470165252686,-0.012578451074659824,0.0621335469186306,-0.022718526422977448,0.06148650497198105,-0.032350655645132065,0.0480397492647171,0.05529579892754555,-0.0255512036383152]},"outputBias":{"rows":20,"columns":1,"weights":[0,0,0,0,-1.7908259763999013e-8,0,0,0,0,0,0,0,0,0,0,0,0,0,0,0]},"cellActivationMatrix":{"rows":20,"columns":1,"weights":[0.0425412543118,-0.04716308042407036,0.04607374966144562,0.030478332191705704,-0.06352673470973969,0.02842188999056816,-0.0718299150466919,-0.006085080560296774,0.0022969357669353485,0.0474918857216835,-0.011808311566710472,-0.06074966490268707,0.07105189561843872,0.05548592284321785,-0.01253858394920826,0.006600954104214907,-0.061762116849422455,0.019483787938952446,-0.03282950446009636,-0.07114555686712265]},"cellActivationHidden":{"rows":20,"columns":20,"weights":[0.000341006089001894,-0.06355664134025574,-0.015202779322862625,-0.04856155440211296,-0.0550696924328804,0.06684192270040512,-0.029703710228204727,0.056703224778175354,0.017983727157115936,0.0022995027247816324,-0.06004078686237335,-0.02387872524559498,-0.03636576980352402,0.04581381753087044,0.011698881164193153,0.047119054943323135,0.0035385789815336466,-0.054561931639909744,0.03365883231163025,-0.049442991614341736,-0.02792396955192089,-0.022022772580385208,-0.00899707991629839,-0.06485670059919357,0.013635789044201374,0.050593167543411255,0.03158502280712128,-0.039077457040548325,0.04115662723779678,-0.07366357743740082,0.024077218025922775,-0.03443503379821777,-0.015741165727376938,-0.01115593034774065,0.046573489904403687,0.01768525317311287,-0.00859647523611784,-0.018292702734470367,-0.019676346331834793,-0.04207752272486687,0.0706050917506218,-0.03474559262394905,0.00430829543620348,0.04616556316614151,-0.026986436918377876,0.057161301374435425,0.07304660975933075,-0.022633956745266914,0.02057020738720894,0.05451958253979683,-0.03508550673723221,0.004163204692304134,-0.01988464780151844,0.02825833670794964,-0.0293138325214386,0.04202783480286598,-0.05488588660955429,-0.03826729580760002,-0.042183421552181244,-0.044586554169654846,0.02531467191874981,-0.016674252226948738,0.05247851088643074,-0.022306116297841072,0.05664128437638283,0.029750186949968338,-0.06563163548707962,0.007201037369668484,0.05455922707915306,-0.02647826261818409,-0.014793386682868004,-0.049804650247097015,0.025208130478858948,-0.07217083871364594,0.001434285193681717,0.0513685867190361,-0.02238539606332779,-0.0065901135094463825,-0.06716496497392654,-0.01751544140279293,0.071684330701828,-0.037811391055583954,0.038424111902713776,-0.011181366629898548,-0.06936068087816238,-0.01472119428217411,-0.033524006605148315,-0.00894014723598957,0.07308176159858704,-0.07316647469997406,-0.05667654424905777,0.06740282475948334,0.04357236996293068,0.0393354594707489,-0.05970466136932373,0.04695991054177284,0.041977111250162125,0.044571273028850555,0.037781696766614914,0.04935675114393234,0.02139156684279442,0.03879770636558533,0.02525288239121437,0.009625274688005447,0.04089437797665596,-0.05744436755776405,-0.0419234037399292,-0.07017530500888824,0.018498873338103294,0.048076920211315155,-0.03886740654706955,-0.059659212827682495,0.04600495845079422,0.05316611006855965,-0.04518610239028931,0.06729385256767273,0.012554547749459743,0.037900641560554504,0.03878514841198921,-0.013126901350915432,-0.03732207044959068,-0.020842378959059715,0.0016797329299151897,-0.059110380709171295,-0.052599336951971054,0.0728403627872467,-0.0292698722332716,-0.04733608663082123,-0.04136745259165764,-0.048192378133535385,0.06431102752685547,-0.018606219440698624,-0.06709715723991394,0.0042364648543298244,0.030413158237934113,0.06628559529781342,-0.020926756784319878,0.028014929965138435,0.005529856774955988,-0.021887728944420815,-0.01690184511244297,-0.04299294203519821,0.04807214066386223,-0.026806414127349854,0.043208904564380646,0.07066525518894196,-0.05042647942900658,0.06971124559640884,0.0475304014980793,0.04817108437418938,0.032292626798152924,0.0005003285477869213,0.035822078585624695,0.02161363512277603,0.027492482215166092,-0.03484391048550606,-0.005244241561740637,-0.03731830045580864,-0.07107764482498169,0.05309096723794937,0.0017301648622378707,-0.02043606899678707,-0.009465339593589306,-0.04592525586485863,-0.009492225013673306,-0.05962371826171875,-0.0038750632666051388,-0.03186303749680519,0.038282427936792374,0.002325200941413641,0.05388573184609413,-0.061669569462537766,-0.016229894012212753,-0.008974885568022728,0.0392482727766037,0.017230471596121788,-0.013154551386833191,0.07222472876310349,0.046385206282138824,0.02079838328063488,0.040727876126766205,0.012126565910875797,0.0051058633252978325,-0.06199000030755997,-0.014992022886872292,-0.05138840526342392,0.07019016891717911,0.03576159104704857,0.003992150072008371,-0.058980584144592285,0.024160491302609444,0.04488043487071991,-0.03293200209736824,-0.01380477100610733,0.04636310413479805,0.0047867437824606895,0.05190134420990944,0.06358348578214645,0.06717924773693085,-0.07093703746795654,-0.020755525678396225,0.07052765786647797,-0.007449371740221977,-0.06582943350076675,0.029017966240644455,0.03737592697143555,0.024367615580558777,-0.0693996474146843,0.06923320889472961,0.010523112490773201,-0.07213183492422104,0.03888331726193428,-0.012602878734469414,-0.004337407648563385,-0.05608539655804634,0.039087288081645966,0.022935936227440834,0.06673284620046616,0.028726667165756226,0.048569366335868835,0.011956503614783287,0.07286935299634933,0.06281018257141113,-0.06142755597829819,-0.009434321895241737,-0.03086864948272705,-0.0698973536491394,0.001602049684152007,0.018506009131669998,-0.02418355643749237,0.05550418421626091,0.039158277213573456,-0.0327179841697216,-0.017679451033473015,-0.06888139247894287,0.03746264427900314,-0.06668911129236221,-0.004974373150616884,0.07313364744186401,0.03174810856580734,-0.020378632470965385,0.010797638446092606,-0.007036043796688318,-0.059828028082847595,0.06019836664199829,-0.026639822870492935,-0.06032121181488037,0.06298468261957169,0.00470358831807971,0.03779544308781624,0.007741190027445555,-0.005099410191178322,0.027460237964987755,-0.04002698138356209,-0.0694238469004631,0.029483158141374588,-0.02550606243312359,-0.057643093168735504,0.03980490565299988,0.042251575738191605,-0.055035848170518875,-0.0450679175555706,0.036748673766851425,-0.05896478891372681,-0.04895133897662163,0.026337265968322754,-0.0032751718536019325,0.07318906486034393,0.0720517635345459,-0.040233008563518524,-0.050955843180418015,0.029808122664690018,0.06715671718120575,0.018522199243307114,-0.025590872392058372,0.021253330633044243,0.06812675297260284,0.016706347465515137,0.05150078982114792,0.06586042791604996,-0.006567052565515041,0.006818119902163744,-0.019544200971722603,0.07058419287204742,0.06298184394836426,0.046138446778059006,0.02849806658923626,0.06296882778406143,-0.06949646770954132,-0.05246199667453766,0.0050577265210449696,-0.06033043563365936,0.0023769603576511145,-0.05426879972219467,-0.07280346751213074,0.010407407768070698,0.0017314112046733499,-0.04252687841653824,0.02364819496870041,-0.0482509508728981,0.026276055723428726,-0.011995045468211174,0.07236826419830322,-0.048599254339933395,0.024739861488342285,-0.004679357632994652,0.06486315280199051,0.03246635943651199,-0.016066614538431168,-0.016257910057902336,-0.04412249103188515,0.004320081323385239,0.05174276605248451,-0.06834472715854645,0.0283611211925745,0.013021720573306084,-0.037808120250701904,0.01598348096013069,-0.009989355690777302,0.0507245808839798,-0.011010229587554932,0.06968033313751221,0.03619891405105591,0.0330452099442482,-0.040233809500932693,-0.006309235002845526,-0.012917235493659973,-0.02920164167881012,-0.038248442113399506,-0.02095090225338936,-0.002296293154358864,0.016508713364601135,-0.057219915091991425,0.03796728700399399,0.032303646206855774,-0.05426589027047157,0.046016160398721695,0.05716661363840103,0.017551762983202934,0.015129011124372482,0.05351544916629791,0.022469304502010345,-0.03109036386013031,0.04668854549527168,-0.0011985551100224257,0.062043167650699615,0.06679964810609818,-0.073715940117836,-0.0434696190059185,-0.053908903151750565,0.002704659942537546,-0.0491945818066597,-0.05360666662454605,0.04207603260874748,-0.011654327623546124,0.05515317618846893,0.04819358512759209,-0.008748305961489677,-0.013717780821025372,0.02838018536567688,-0.05023200809955597,-0.018509548157453537,-0.002546550240367651,-0.04457776993513107,0.07015513628721237,-0.06840930879116058,0.059536412358284,0.013114456087350845,-0.007847808301448822,-0.011023052036762238,-0.0011154329404234886,0.04197901487350464,-0.06688528507947922,0.017315808683633804,0.01663961075246334,-0.03653416782617569,-0.057528067380189896,-0.050735052675008774,-0.03646319359540939,-0.04783262312412262,0.03323666378855705,-0.050358716398477554,0.05927377939224243,0.013145091012120247,0.062256645411252975,0.06597884744405746,0.07060657441616058,0.05969133973121643,0.0111465435475111,0.01810176856815815,0.004765110090374947,-0.0029107159934937954,0.03966674208641052,0.017334051430225372,-0.03291206806898117,0.0008978672558441758,-0.024955905973911285,-0.05221426114439964,0.012420888058841228,-0.040220219641923904]},"cellActivationBias":{"rows":20,"columns":1,"weights":[0,0,0,0,0,0,0,0,0,0,0,0,0,0,0,0,0,0,0,0]}}],"outputConnector":{"rows":1,"columns":20,"weights":[-0.07029499858617783,-0.07244815677404404,0.04203099384903908,0.01843322068452835,0.03641356900334358,0.04368879646062851,-0.03159266710281372,0.022282332181930542,0.06978563964366913,-0.06507211178541183,-0.005521935876458883,-0.03957441821694374,0.02997567318379879,-0.0010900479974225163,-0.03583567589521408,-0.07280819118022919,-0.049299206584692,0.029504436999559402,-0.007496453355997801,-0.005044334568083286]},"output":{"rows":1,"columns":1,"weights":[0.3632679581642151]},"inputLookup":null,"inputLookupLength":0,"outputLookup":null,"outputLookupLength":0}